/*
 * SUITE: beguiling-drafter-2018-08-30
 *
 * INTENT:
 *
 * Voice in a reasonable recording environment. Fans, AC, computers, etc.
 *
 *
 * SIGNAL:
 *
 * voice
 *     hamlet-002-act-1-scene-1.1626
 *         http://etc.usf.edu/lit2go/94/hamlet/1626/
 *     human_rights_un_chi_nf.mp3
 *         https://librivox.org/universal-declaration-of-human-rights-by-united-nations-volume-02/
 *     human_rights_un_cze_msed.mp3
 *         https://librivox.org/universal-declaration-of-human-rights-by-united-nations-volume-02/
 *     huntingofthesnark_01_carrol_128kb
 *         https://librivox.org/the-hunting-of-the-snark-by-lewis-carroll-3/
 *     teacupclub_01_armstrong_128kb
 *         https://librivox.org/the-teacup-club-by-eliza-armstrong/
 *     warletters_01_allan_128kb.mp3
 *         https://librivox.org/war-letters-from-a-young-queenslander-by-robert-marshall-allen/
 *     TSPspeech
 *         http://www-mmsp.ece.mcgill.ca/Documents/Data/
 *
 * sounds
 *     cough
 *         https://freesound.org/ sounds: 205012 222644 252240 323532 342587 343880 343885 343986 369295 391284 401334 407839 419781 425777 87412
 *     laugh
 *         https://freesound.org/ sounds: 167578 189278 263775 319346 343934 344043 344064 367680 381275 383237 393353 401214 433921 73123
 *
 *
 * ./chopper voice/hamlet-002-act-1-scene-1.1626.raw voice/human_rights_un_chi_nf.raw sounds/cough.raw voice/human_rights_un_cze_msed.raw voice/huntingofthesnark_01_carrol_128kb.raw sounds/laugh.raw voice/teacupclub_01_armstrong_128kb.raw voice/warletters_01_allan_128kb.raw voice/TSPspeech.raw
 *
 *
 * NOISE:
 *
 * rnnoise_contributions (only "other" and "none" samples)
 *     https://people.xiph.org/~jm/demo/rnnoise/rnnoise_contributions.tar.gz
 *
 *
 * COUNT: 13212874 (x87)
 *
 * NOTE: All files processed into correct raws through ffmpeg: ffmpeg -i in -f s16le -ac 1 -ar 48000 out.raw
 */

/*This file is automatically generated from a Keras model*/

#ifdef HAVE_CONFIG_H
#include "config.h"
#endif

#include "rnn.h"
#include "rnn_data.h"

static const rnn_weight input_dense_weights[1008] = {
   3, -3, 3, 4, 20, 1, 1, 4,
   4, 6, 2, -9, 2, 8, 2, -3,
   8, 0, -11, 4, 9, 12, -4, 3,
   -31, -2, 17, -3, 21, -9, -4, -26,
   18, -6, 1, -16, -4, 34, -2, 15,
   14, -5, -18, -20, 0, 7, -63, -21,
   37, -58, 36, 6, 49, -19, 16, -31,
   -10, -1, 1, -40, -43, 24, -3, 12,
   -10, 6, -18, -47, -10, -21, 23, -19,
   9, -40, 6, 4, 27, 5, -24, -36,
   40, 65, 6, -52, -21, 4, -31, -71,
   -63, 7, -11, 11, 7, 21, 50, 11,
   20, 121, 37, 12, -106, 17, 37, -12,
   -16, 59, 17, 17, 49, -6, 16, -57,
   -97, 40, 8, 14, 1, 11, -78, 9,
   -68, 61, -4, -1, 59, -12, 1, 10,
   44, 7, 1, -7, 24, -16, -4, 49,
   -30, 17, -8, 34, 33, -10, 19, 23,
   -111, -98, -114, 40, -104, -81, 119, 88,
   -54, -64, 71, -118, -30, -127, -34, 127,
   -16, 83, -35, -90, 116, -14, -51, -8,
   -106, 107, -116, -15, 101, 23, -128, 9,
   100, 40, 95, 2, 29, -126, 12, -76,
   -43, -30, -14, 80, 80, 45, 14, -119,
   -99, 2, -111, 4, -83, 41, 69, -21,
   -107, 11, 127, 47, 11, -125, -27, -20,
   -62, -75, -32, 6, 113, 51, 127, -126,
   29, -24, -122, 39, -55, 22, -26, 59,
   127, -20, 23, -33, -73, -128, -84, 12,
   -46, 7, -8, -24, 32, 116, -83, 16,
   -27, 88, -81, 83, 93, -8, 98, 61,
   -40, 91, -54, 83, -124, -2, -39, -40,
   123, -9, 24, -3, 38, -25, -124, 42,
   -24, -9, -37, -76, -122, -58, -11, 127,
   26, -13, -92, 87, 63, 127, -66, -50,
   57, -80, 5, -77, 65, 106, -11, -124,
   45, -43, 67, 127, -40, 89, 122, 78,
   -122, 25, -60, 28, -23, 65, 0, 124,
   6, -50, 36, -30, -34, -21, 55, -70,
   -15, 113, 88, -28, 38, -1, 113, 75,
   100, -20, 15, -22, -93, 78, 41, 68,
   -59, -71, -18, 125, -36, -66, -5, -97,
   -27, 55, 20, 81, 67, 80, -54, 36,
   -69, -24, 126, 38, 26, 65, 63, 2,
   120, -35, 66, -62, 31, -125, 54, 111,
   31, -84, 61, 80, 9, 71, -109, 62,
   26, 73, 123, 41, -68, 43, -20, -99,
   116, -75, -19, 7, -30, -48, -59, 106,
   127, 85, 9, 91, 127, 23, 19, 38,
   -28, -29, 127, 105, -102, -100, 127, 28,
   -23, -26, -30, 50, -85, -127, -128, -32,
   -26, -128, 97, 127, -115, 127, 32, 121,
   32, 114, -119, -126, -43, -23, 93, 54,
   -120, 9, -109, 10, -128, -51, 38, 127,
   28, 77, -60, 117, -26, -24, 126, 11,
   -45, 21, 114, 38, -119, -51, 68, 118,
   -118, -45, -19, -69, 75, 103, 33, 23,
   88, -122, -45, -11, 127, -107, -126, -15,
   -2, -20, 127, -6, -32, -61, -79, -101,
   0, -68, 84, -101, 118, 92, -41, -34,
   -127, -124, 92, 107, -97, -117, 8, -110,
   -46, -54, 8, 2, -6, 8, -31, 21,
   -120, -111, 37, -44, 96, -98, -126, -66,
   124, 127, 78, -44, 127, -18, -40, 4,
   13, -128, 15, 20, -128, -107, 110, 118,
   -51, 79, -112, 62, -32, -96, -128, -32,
   -103, -100, 36, 4, -116, 33, -11, 117,
   24, 127, -31, -127, 85, 35, 127, -78,
   -24, -119, -116, 127, -32, 47, 61, 127,
   23, 114, 81, -70, 34, -79, 16, -128,
   11, 89, 72, -127, -7, 75, 127, -65,
   85, -128, -60, 127, -126, -24, -54, 68,
   19, -82, 127, 45, -78, -120, -8, -38,
   0, -2, -94, -128, -94, 44, 101, -120,
   -17, -20, -127, -47, 7, -18, -22, -52,
   74, -127, 70, 27, -121, -13, -88, 36,
   18, 63, -57, -123, 64, -51, -67, -116,
   -128, 113, -24, -6, 11, 27, -45, 93,
   -123, 120, 51, 64, -64, -51, 33, -72,
   1, 35, 127, -19, 74, -14, 125, -117,
   -54, 26, -92, -119, -34, 105, -28, -22,
   106, -26, -35, -33, 7, 99, -15, 4,
   2, -34, 100, -41, 62, -83, -33, 120,
   75, 127, -21, 12, 31, -46, 52, 9,
   88, 26, 16, 44, 96, -127, 18, -117,
   1, -121, -77, 50, 112, 31, -29, -5,
   14, 68, -13, 49, 43, -8, -106, 107,
   11, -67, 43, -30, -5, -68, 34, 0,
   -20, 7, 2, -89, 13, 44, 65, -44,
   -10, -45, -38, 122, 22, 45, -80, -51,
   -116, 96, 59, 10, 71, 83, 9, -104,
   -15, 19, -127, -27, -11, 25, -45, -17,
   -52, 8, 37, -10, -30, -50, -8, -5,
   -17, -91, 4, -54, -42, 76, 60, -103,
   53, -41, -47, -33, 8, 27, -106, -18,
   -25, 58, 16, 67, -66, 19, 30, 56,
   110, 4, 16, 73, -27, -55, 8, -95,
   -105, 75, 108, -8, 48, -29, 26, 80,
   79, 34, 63, -23, 49, -77, -123, 37,
   -128, -12, 32, -35, -106, 18, 50, -102,
   14, 7, -81, -98, 71, -38, -17, -21,
   -62, -30, 1, -118, 31, 95, -33, 58,
   -79, -102, 84, -4, -49, 127, -126, 59,
   -65, 74, -20, -7, 127, 127, -90, 127,
   124, 80, -128, 125, -128, -45, 127, 26,
   -100, -119, 107, 100, 8, 127, -113, 103,
   -104, 57, -124, -128, 108, 110, -65, 127,
   122, -79, -128, 125, -128, -77, 17, 122,
   -46, -119, 127, 17, -5, -1, 50, 92,
   53, 5, 53, -31, -81, -23, 73, -35,
   -65, -78, -6, 42, -34, -100, -95, 120,
   -55, 68, 94, -43, 98, -55, -7, -32,
   -28, 21, 109, 22, 127, 7, 119, -128,
   -116, 76, -62, -111, -23, -58, 33, -74,
   52, 102, 96, 58, -58, 27, -85, 47,
   -36, -51, 3, -36, 127, 48, 37, -65,
   -62, 64, -50, -38, -54, -34, -20, -9,
   77, -25, -4, 66, 10, -34, 81, -3,
   60, -64, 27, 10, 44, -120, 19, -122,
   -44, -28, 97, -7, 111, 127, -101, -56,
   101, 85, -55, -48, 12, -25, 25, -21,
   25, -50, 27, -82, -47, -35, -10, -37,
   -2, -22, 2, 51, 29, 10, 76, -39,
   94, -6, -47, 61, 77, 43, -19, 4,
   -27, 70, 9, 71, 86, -16, 1, -33,
   -62, -50, -23, -51, 14, -26, -15, 108
};

static const rnn_weight input_dense_bias[24] = {
   -56, 125, -87, -127, -85, -91, -20, -124,
   120, 68, -125, -68, 2, 21, -43, -27,
   -80, -13, -3, 34, -33, -108, 46, 63
};

static const DenseLayer input_dense = {
   input_dense_bias,
   input_dense_weights,
   42, 24, ACTIVATION_TANH
};

static const rnn_weight vad_gru_weights[1728] = {
   -6, 96, -13, -69, 77, 84, 21, -48,
   21, 22, -4, -128, 35, -47, 39, 37,
   -69, 79, 35, -35, -31, 42, 100, -108,
   20, 29, 46, -18, 2, 40, 42, -82,
   -40, -42, 51, -30, -36, 72, -39, -25,
   -28, -76, -18, -13, 51, 10, 1, -84,
   66, 55, 20, 11, 25, -9, -42, -3,
   49, -48, -18, -6, -28, -9, 38, -8,
   59, -4, -35, 57, 12, -39, 27, -25,
   105, -41, 59, -34, 35, 52, -22, 46,
   126, 119, -46, 77, 67, 48, 10, -95,
   -87, -73, 66, -39, -73, -97, -60, -128,
   41, 78, 119, 109, 97, 10, -2, -50,
   -9, 0, 34, -79, -27, 39, -30, 11,
   72, 40, 15, -3, 27, 20, 83, 42,
   8, -52, -81, 51, 32, 80, -20, -34,
   11, 72, -23, -51, 23, -18, 23, -8,
   32, -7, -1, -75, -14, 60, -39, 56,
   -86, 72, -31, 41, 69, -8, -38, -104,
   -69, 69, 63, 67, -101, -35, -69, -1,
   41, 38, 107, 127, -25, -39, -9, 27,
   -19, -48, -5, -102, -125, 29, -67, -54,
   25, 102, -13, 55, 54, 62, -13, 37,
   8, -113, -10, -113, 45, -24, -41, -30,
   41, 75, 125, -69, 45, -82, -3, -38,
   -40, -15, 108, -53, 66, -1, -24, 101,
   97, 28, -83, 62, 125, -116, -36, 10,
   -123, 109, 37, -53, -12, 54, -12, -123,
   -37, 5, 100, -106, -118, -62, 30, 92,
   -83, 87, 73, 28, 42, -24, -108, -9,
   -85, 65, -28, -2, -76, 32, 3, -84,
   -97, 92, 57, -8, -66, 0, -72, -33,
   -120, -2, 19, 88, 8, -40, 27, -101,
   6, -45, 116, -59, 107, 16, -89, 51,
   -18, 7, 32, 54, 19, -54, -94, 73,
   -10, 96, 19, 90, 48, 3, -29, -24,
   -71, 114, -41, 115, 105, 96, 42, -84,
   -37, 66, -57, 46, -13, -2, -56, 88,
   -109, -14, 81, 30, 50, 5, 62, 29,
   -4, -6, -25, -55, -33, 12, 96, -58,
   -105, 57, 64, -54, -7, 57, 49, 75,
   -24, 45, -28, -32, 32, -1, -58, -11,
   0, 65, -6, 27, -19, -38, -68, 12,
   17, 8, 10, -55, -33, -77, 18, 91,
   -11, -2, -12, 26, 59, 49, -17, 28,
   -128, 70, -64, -31, -83, 127, -76, -45,
   -44, 112, -67, -116, -115, -19, -39, -69,
   -111, -128, -118, -94, -3, 57, -112, -98,
   -115, 68, 12, -26, 54, -26, 21, 82,
   -67, 40, -67, -87, -84, -45, -65, -73,
   -100, -43, -105, 93, 44, 28, 5, -95,
   -8, 9, 9, -106, -45, 34, -59, 77,
   1, 74, -51, 25, 41, 28, -30, 32,
   56, 69, -17, 19, -36, -56, -17, 60,
   16, -13, 42, -7, -5, -54, -38, -30,
   -26, 73, 49, -26, -60, -103, 78, 123,
   114, 122, 114, 105, 61, 66, -53, 62,
   93, -31, 9, 92, 32, -1, 12, -98,
   94, 51, 98, 109, -59, 55, -29, -46,
   -5, 18, 76, 66, 99, -16, 19, 75,
   -18, -37, -51, 58, 61, 41, -11, -25,
   -57, 98, -105, -25, -13, 43, -7, -75,
   -67, -87, 37, -110, -57, 19, 20, -87,
   -66, 114, 77, -31, 28, -65, -15, 71,
   -28, 118, 124, -81, -44, -90, 5, 15,
   -52, -62, 25, 24, 37, -39, -34, 17,
   35, 76, -78, -33, 2, 19, 2, -53,
   37, -52, 82, 20, -29, 94, 92, -26,
   -68, 31, 86, 73, 69, -88, 51, -11,
   20, 11, 1, 20, -14, -49, -22, 88,
   -19, 7, 9, 83, 52, 15, -26, 54,
   -14, 105, -79, 58, 65, -69, 7, -8,
   67, 118, 9, -47, 79, 82, 127, -109,
   102, -26, -64, -31, 127, 47, 39, -44,
   -82, 80, 41, -94, -101, 7, 24, 41,
   40, 46, -27, -22, -74, 118, 112, -42,
   -22, 127, 21, -3, 38, -60, 75, 99,
   -65, 97, 41, 17, 26, 18, -50, -45,
   50, 30, 89, 0, -14, 12, 0, 38,
   26, -58, 54, 0, -31, 24, -20, 63,
   -4, 81, -127, 120, 89, -85, -34, -5,
   89, -29, -125, 5, 21, 37, -23, 41,
   -12, 9, -116, -65, -100, -55, -61, -127,
   88, -124, -24, -108, -87, -5, 14, 85,
   -1, -72, -91, -78, -76, 0, -4, 47,
   71, 38, -128, -60, 24, -46, -60, -85,
   12, -123, -23, -95, -51, -29, 43, -67,
   -15, 96, 51, -118, 9, -9, 52, 65,
   36, -43, 46, 16, -36, -47, -40, 50,
   -24, -39, 8, 41, 122, -72, -66, 57,
   -128, 101, 127, 82, -21, 25, 76, 47,
   40, 50, -65, 18, 98, 31, 112, 116,
   35, 117, 119, 86, 68, 127, -51, -32,
   -17, 49, 10, 109, -15, 35, 58, -91,
   -34, 59, 104, 76, 52, 106, -125, 54,
   -45, -40, -19, 12, 8, 43, -10, -64,
   62, -21, -40, -43, -21, 97, 4, 12,
   30, 52, -22, 3, -69, -37, 57, -22,
   59, 7, -21, 0, -55, 20, 63, 51,
   -23, -120, 47, -112, -108, 16, 14, -82,
   -100, 68, -128, -101, 40, -9, 87, 33,
   64, 18, -128, 66, 2, 80, 60, 35,
   -14, -128, -47, 35, 92, -120, -121, 15,
   9, -117, -39, -64, -103, 9, 54, -121,
   -123, 19, -108, -28, 46, -75, 23, -63,
   10, -4, -73, -13, -27, 33, -8, -35,
   29, -27, -52, -22, -38, -18, -13, -26,
   -67, 51, 81, -15, 13, 34, 7, 20,
   -63, -119, 116, -48, 46, 17, -78, 0,
   -36, -31, 87, 45, -127, -124, 2, 79,
   -25, 54, -46, -71, 126, -72, -27, -68,
   -23, -117, -77, 20, 13, -61, 11, 40,
   73, -28, -106, -72, -12, 45, 127, 66,
   -35, 13, 11, -56, 44, 28, 81, 85,
   -17, 127, -25, -86, -67, -70, 52, -49,
   -12, -110, 89, -9, 28, 14, -118, 38,
   25, 71, 37, 19, 21, 0, -57, 82,
   -44, -40, -5, 37, 95, -38, -17, -68,
   -120, -82, 3, 42, -98, -58, -128, -67,
   -69, -120, -64, -19, 50, 29, 7, -128,
   -30, -96, -38, -128, -2, 127, -47, -18,
   -68, 113, -85, -60, 24, -43, -60, -70,
   -98, -101, -96, -121, -57, -103, -48, 66,
   -5, 67, 109, -105, -17, -27, 15, -14,
   -4, -77, 125, -54, 0, -56, -91, 73,
   107, 106, -55, 71, 88, -95, -28, 42,
   -56, 96, 3, 81, 27, -81, 94, 116,
   -6, -29, -78, 110, 127, -12, 80, 125,
   94, 0, 127, 6, 60, 65, 51, -26,
   7, 88, -124, 29, -63, 16, -57, -78,
   55, 13, -35, 103, 80, 8, 58, 106,
   68, 79, 67, -78, -18, -8, -33, -15,
   58, -71, 1, -10, 48, -61, 1, 73,
   -7, -20, 27, 60, 35, -33, 29, -35,
   54, -20, -11, -8, 46, 11, 69, 63,
   -116, 118, 99, 60, 101, 1, -74, -61,
   -115, 102, 125, -88, -112, -36, -112, -30,
   -125, -127, 19, 78, 57, -55, 117, -96,
   8, -50, -110, -38, 30, 43, -44, -40,
   -128, 55, 21, 27, -42, -22, 43, -61,
   -127, -31, 11, -74, 8, -33, -20, -4,
   -15, -58, 32, -113, 16, -54, -14, -56,
   7, 66, 0, 9, 62, 16, -51, 61,
   52, 74, 13, 115, 45, -103, 29, 60,
   -50, -55, 127, 120, 1, -117, -70, 88,
   -100, -8, 42, -56, -56, 26, -117, -22,
   36, -5, -13, 77, 119, 36, 75, -46,
   -70, -61, -36, -128, 70, -105, -35, -57,
   -14, -65, 23, -44, -128, 4, -52, 7,
   -55, -45, 2, -55, 5, -20, 7, -37,
   44, -16, -7, -78, -59, -5, -4, -45,
   -23, -33, 124, 65, -27, -91, -65, 84,
   28, 86, -37, 23, 26, 0, 22, 54,
   46, 4, -126, -49, 44, 59, -8, -4,
   -3, 117, 81, -46, -95, 9, 64, -49,
   -27, 6, 127, 118, -54, -64, -23, -12,
   56, 105, 5, 126, -46, 32, 8, -74,
   -24, 0, 42, 28, 87, -17, 39, 87,
   -114, 46, -90, 21, -31, -32, -10, -92,
   29, -11, 14, -58, -87, -32, 37, -42,
   -64, 53, 35, -1, 62, 51, 46, -29,
   -18, 76, -10, 69, 27, -85, -44, -84,
   96, 119, 91, -44, -24, -13, 75, -13,
   47, 81, -56, -38, 108, 27, 48, -67,
   56, -18, -34, -36, -113, 102, 52, 17,
   76, 4, -76, 107, 106, -60, -118, 61,
   -26, -117, 52, 85, -18, -38, -59, -30,
   -95, -26, -64, 50, -53, -9, 66, 25,
   -59, -124, -43, -63, -51, -42, 35, -112,
   21, 108, -47, 34, -57, 58, 75, -46,
   -114, -66, -14, -1, 27, -18, -75, -54,
   13, 33, 33, -66, 6, 11, 24, 23,
   115, -21, -27, 29, -85, -95, -120, -8,
   -24, -125, -11, -127, -106, 17, -98, -128,
   48, 94, -10, -56, 119, 28, -41, -60,
   -54, 67, 17, -31, 14, -115, 110, 60,
   -62, -47, 73, -2, 2, -26, -19, 8,
   0, 10, 41, -120, 14, -71, 1, -25,
   -49, -18, 90, 91, 13, 79, -55, 26,
   31, 42, -86, 77, 38, -27, 48, 64,
   33, 0, 29, -13, -57, -28, 28, -127,
   37, 14, 91, -101, 93, -2, 85, 127,
   24, 127, 80, -26, 110, 22, -12, 119,
   -18, 83, 20, 127, -117, -112, 59, -94,
   -40, -124, 48, 111, 88, 97, 83, 11,
   -115, 51, -29, 70, -35, 106, -39, -92,
   52, 39, -81, 30, 40, 48, -7, 51,
   41, -15, 0, 22, -76, -6, 37, 5,
   -127, 30, 4, 11, -100, 92, -9, -67,
   -92, 18, 96, -122, 36, 12, 127, -37,
   26, 53, 110, -85, 4, -99, -31, 97,
   -17, -25, 18, 16, 118, 124, -75, -5,
   5, 127, -108, 99, 3, 15, 69, -98,
   -3, -39, 66, 26, 125, -52, -3, 36,
   -122, -38, -15, 88, 78, 6, 1, 46,
   48, 81, -10, -79, -42, -13, -29, 55,
   -7, -31, 27, 62, 46, -26, -63, 20,
   -74, -36, -119, 23, 25, 32, 24, -48,
   40, 113, -86, 48, 78, 87, 46, 79,
   -11, 0, -75, -26, -60, 40, -10, -51,
   -126, -67, 64, -88, -119, -94, 21, -42,
   68, 36, 49, -62, -19, -47, 5, -44,
   31, -70, -33, -29, 43, -52, 12, -15,
   37, 97, -1, 55, 39, -20, -60, 58,
   -20, 1, -15, 37, -62, 37, -12, -53,
   -34, 67, -29, 41, 24, 47, -45, -54,
   -19, -25, -28, -93, -3, 5, 12, 56,
   -46, -105, -87, -84, 70, -54, 43, 32,
   11, -97, -87, -36, 95, -20, 8, -79,
   63, -54, -111, -119, -86, -77, 89, 36,
   -100, -112, -122, -125, -65, 0, -85, 127,
   106, -74, -127, 114, -76, 3, 19, -38,
   -68, -106, 115, -127, -57, -73, 4, -79,
   -29, 60, 118, -112, 23, -51, 13, 47,
   -31, -47, 120, 67, -83, 8, 4, 118,
   -22, 9, 96, 102, 115, -67, -11, 35
};

static const rnn_weight vad_gru_recurrent_weights[1728] = {
   122, 19, -128, -30, 127, 33, 127, 39,
   -112, 96, -21, -106, 7, 14, -28, -109,
   -90, -57, 39, -128, -96, -125, 105, -29,
   75, -28, 57, 89, 63, -36, -113, 118,
   -29, -18, -72, 37, -108, -99, -113, 79,
   115, 94, 119, 70, -25, -27, 111, -6,
   47, -127, -117, 127, -117, 24, -82, -126,
   115, 101, -82, -98, 10, -47, 58, -37,
   -126, -110, 121, -128, -94, 105, -120, -121,
   42, -103, 61, 127, -26, 48, 67, -22,
   -61, -115, 34, -15, 73, 104, 72, 73,
   61, 76, 114, 65, 87, 46, -22, 93,
   76, -37, -32, -36, -117, 65, 113, -105,
   -33, 60, -5, -48, 45, 32, 43, -8,
   38, -21, -31, -12, -87, -1, -88, -36,
   107, 127, 25, -33, -77, -128, -82, 13,
   101, -128, 50, -77, -14, -65, 46, -36,
   -25, -60, -36, 8, -40, -28, -13, -103,
   -79, 47, -59, 31, -79, -12, -127, 21,
   -103, -10, 2, -10, -127, 2, 20, -6,
   25, -8, -128, 15, -2, 10, -40, 32,
   36, -26, 68, -2, 7, 52, -68, 53,
   -11, -10, 29, 4, 33, 13, -46, 11,
   62, 8, 4, -11, -18, 32, 96, 37,
   -7, 81, 2, -100, -40, -84, 101, -20,
   2, -22, 35, 69, 111, -33, -20, -1,
   16, 107, -5, 60, 88, -53, -7, 31,
   122, -108, -127, -101, 72, 42, 125, 11,
   123, 9, -106, 99, 118, -20, -60, -65,
   -103, -128, -26, -113, -121, -126, 60, -70,
   34, -43, -47, -31, -33, 0, 99, -17,
   75, -20, -80, -7, 118, -62, 15, 28,
   93, -25, -49, 29, 32, 77, -60, 20,
   31, -25, -128, 72, 57, 127, 6, 10,
   18, 56, -125, 6, 5, 58, -3, -118,
   -24, -95, 38, -128, -87, 53, -63, 10,
   -126, 51, -85, -44, -61, 124, -127, -77,
   17, 126, -33, -55, -127, -109, -115, -16,
   22, 17, -70, 30, -32, -128, 30, -59,
   -7, -55, -68, -24, 37, 43, -14, 21,
   6, 34, -76, 35, -42, 63, 56, -67,
   -35, -87, -98, -127, 51, 39, -21, 101,
   -75, -27, 40, 0, 29, 14, -92, 50,
   50, 30, 0, -25, -66, 10, -79, -23,
   12, -6, -10, -1, 117, -128, 77, 88,
   -55, -63, -115, -92, 88, 123, -127, -74,
   -13, 36, -107, 62, -25, -92, -121, -128,
   -89, -117, -88, -106, -116, -54, -44, -1,
   19, -14, 23, -54, 9, 51, 25, -100,
   -25, 83, -26, -33, -16, -13, 63, -71,
   1, -120, -89, -59, -65, 33, 39, 41,
   -41, -16, 66, -29, 102, -4, 30, 67,
   30, 53, -22, -80, 44, 112, -89, -8,
   65, -19, -39, 15, 102, -11, 15, 97,
   127, -103, -53, 5, -26, -100, 126, -115,
   62, -128, -128, 37, 124, 107, -30, -125,
   7, -20, -23, -125, -120, 51, 4, 53,
   41, -103, -5, 9, -37, 7, 84, -43,
   15, -67, -83, -26, 64, 5, -83, -25,
   -6, -32, 91, 105, -63, -6, 35, 38,
   49, 24, 52, -105, -108, 37, 46, 29,
   22, 18, 91, 74, 77, 119, -21, 120,
   46, 86, -123, 103, 76, -58, -63, -3,
   -128, 112, 77, 97, -89, 56, -78, -37,
   -18, -34, -22, -92, 95, -60, -122, -31,
   -41, 49, -60, -96, 5, 24, -110, -80,
   -71, 70, 15, 12, -102, 19, 29, -36,
   -121, 123, 10, -55, 3, -24, 14, -123,
   -117, -119, -73, -16, -127, -36, -98, -7,
   -18, 121, 119, -117, 15, 57, -80, 118,
   -51, -106, 127, 117, -28, 27, -77, 120,
   101, 76, -119, 127, 108, -128, 99, 105,
   -106, 14, -97, -127, 119, 113, 127, 99,
   64, 118, -114, 93, -42, -62, -28, -103,
   85, -36, 37, -91, -95, -74, 61, -23,
   3, -100, 27, 40, -81, 11, -30, 113,
   44, -12, -118, 16, 21, -1, 16, 37,
   112, 54, 117, -10, 46, 74, -15, 55,
   118, -2, -96, 80, -113, -37, -82, -81,
   -2, -19, -91, -30, -75, -114, 76, -115,
   -35, -18, 21, -88, -86, 127, -128, -39,
   19, -20, -126, -126, 51, 109, -42, -118,
   46, 22, -108, -8, -21, -101, -85, -124,
   -119, -128, -110, -128, -127, -126, 16, -79,
   40, -16, 29, -82, 22, 5, 67, -38,
   -68, 23, 23, 13, -7, -53, -3, -88,
   -37, -73, -74, -21, 50, -2, 56, 83,
   -127, 30, 97, -69, 68, -41, 52, 26,
   -13, 48, 89, -23, -17, 15, -108, 88,
   29, 17, 5, 82, 45, -69, -84, 95,
   57, 49, -41, 31, 25, -114, -22, 7,
   -102, -105, 40, -57, 42, 34, -41, 127,
   9, -6, -46, 39, -70, 16, -42, -47,
   -8, 32, 60, 1, -17, 0, -78, -8,
   -55, -11, 3, 39, 4, -16, -13, -18,
   66, 82, -4, 59, -51, 30, -18, 99,
   3, 63, 2, -52, 11, -32, 78, -33,
   45, -101, 36, -34, 28, -66, 24, 87,
   43, 38, 28, 46, 127, 44, -26, -5,
   81, -18, -55, -16, -124, -120, -27, -44,
   27, -128, -55, -38, 127, -37, 126, -41,
   -127, -30, -103, -75, 4, 65, -118, 52,
   -26, 52, 5, -62, 20, -27, 61, 6,
   -57, 15, 42, 26, -23, -11, -99, -17,
   -52, -90, 85, 33, -22, 10, -101, -94,
   7, 58, 127, -108, -54, -32, 14, 69,
   -53, -68, 126, 40, 42, 13, -30, 125,
   24, 99, -122, 125, 125, -52, -67, 107,
   127, -70, -128, -91, -10, -125, 120, -121,
   67, -127, -128, -46, 127, 52, 112, -45,
   -113, -123, -120, -127, -119, -90, -82, -39,
   125, 3, 88, -52, -9, 18, -34, 55,
   3, 47, 16, 23, 82, 50, 34, -5,
   -42, 60, 127, 126, -8, 66, 20, 0,
   -43, 20, 31, -3, -46, 17, 116, 13,
   -50, 90, 31, 107, 28, 112, -71, 125,
   20, 42, -75, 51, 44, -67, -63, -28,
   127, -102, -116, 16, -87, -42, -35, 6,
   115, -114, -109, 64, 115, 84, 101, -72,
   -99, -88, -64, -94, -118, 99, -53, 16,
   61, -128, 3, 37, -11, -11, 51, -75,
   -6, 3, -113, 66, 77, -9, 19, 43,
   -47, 6, -28, 88, -31, 82, -32, 31,
   -28, 62, 29, -7, 30, -62, 78, 50,
   -98, -1, 72, 71, 32, 62, 11, 58,
   58, 66, -116, 82, 65, -11, -34, 45,
   -41, 12, -126, -100, 34, 50, 98, -74,
   61, 109, 11, 108, 102, 34, -71, 114,
   -22, 107, 127, 102, -25, -113, 127, 14,
   -98, -18, 33, 29, 21, 36, 9, -35,
   -48, 85, 35, -5, 36, -64, 12, 13,
   55, -17, -106, -63, -70, -70, -27, -10,
   -80, -80, -88, 94, -18, 127, -77, 17,
   80, 125, -105, -70, -83, -84, 103, -37,
   -8, -87, 94, -101, -32, 124, 61, -64,
   20, -2, -27, 12, -58, -111, -1, -39,
   -59, -114, 16, 47, 26, 71, 12, 123,
   -35, -63, -14, -11, -31, -10, -77, -19,
   22, 75, 22, 20, 26, -25, -38, -27,
   -62, 86, 21, -8, 82, 7, -34, -64,
   33, 11, 39, 33, -25, 33, 19, -12,
   25, 44, 97, 33, -27, 67, 28, 20,
   -8, -52, 127, -19, 111, -26, -9, 63,
   -44, -12, 3, 9, 75, -110, -54, 44,
   -118, 62, 127, 89, -44, 69, -127, -29,
   -124, 9, 85, 41, -126, -63, -96, 120,
   59, 121, -58, 127, 124, 122, -33, 31,
   -26, -48, 99, -41, 32, -11, -17, -6,
   -102, 44, 92, -23, -19, 19, -1, 77,
   42, 25, -51, -23, -31, -27, 4, 61,
   57, 75, 115, -122, -38, -66, 14, 47,
   -124, -116, 127, 71, 48, -5, -83, 62,
   124, 123, -108, 127, 8, -72, -10, 110,
   51, 0, 126, 117, -114, -45, -69, -18,
   -115, 19, 112, 1, -127, 46, 38, 117,
   124, 55, -22, 118, 120, 119, -37, 124,
   -90, 9, -5, 32, -10, -93, -58, -9,
   -14, -64, 77, -5, -51, -2, -14, -4,
   -4, 121, 46, 61, -47, 6, -13, 10,
   42, 103, 127, -120, -80, -66, 102, 4,
   -93, -94, 126, 48, 36, 20, 2, 120,
   47, 50, -76, 127, 101, -37, -6, 9,
   -123, -119, -78, -118, -39, 57, -99, -23,
   4, 51, -94, 127, -104, -114, -77, -73,
   -20, -25, -75, -66, -47, -31, 1, -98,
   -38, -59, -40, -43, -23, 12, -50, 36,
   -6, 1, -5, 24, -68, 21, -39, -91,
   37, -26, 3, 1, -59, -42, 32, 49,
   29, -116, -125, 111, 123, 91, -14, 47,
   30, 84, -118, -90, -90, 22, 15, -127,
   -81, -43, 122, -74, -126, 14, 66, -74,
   40, 59, 83, 59, -59, -112, 51, -29,
   -46, -11, 28, -22, -7, 105, -6, 4,
   17, 31, -69, 60, 77, 118, 5, 25,
   38, 3, 37, -7, -4, -43, 41, 32,
   -74, 74, -9, -28, 23, 70, 75, 10,
   14, 61, 89, 32, -10, -31, -4, -47,
   11, 82, 70, -58, -20, -122, 49, 6,
   -57, -84, 124, -2, 105, -53, 20, 127,
   -4, 55, -45, 42, 127, -75, -15, 3,
   -1, 66, 13, -27, -16, -26, -104, -16,
   -26, -66, 38, 3, 8, -5, -34, -42,
   0, -28, -20, 10, -5, -32, -4, 32,
   37, 14, 24, -5, 70, 21, -123, 70,
   -30, 84, 37, -43, -34, 6, -7, -23,
   -33, 63, 64, -3, -32, 53, 72, 102,
   -49, -22, 75, -25, 5, -17, -12, -43,
   -30, 13, 43, -37, 48, 21, -103, 19,
   36, 37, 74, -24, 53, -9, -38, 45,
   -9, -83, -42, 14, 65, -55, 126, 32,
   100, 41, -33, 58, 100, -23, -34, -55,
   8, 95, 94, -38, -67, -44, 48, -33,
   -39, 17, -58, -6, 26, -8, 39, -27,
   19, -6, 14, 30, -6, -59, -19, 16,
   -4, 30, -10, 40, -88, 46, 17, -125,
   19, -72, -63, 40, 18, 96, -36, -41,
   108, 13, -128, -39, -118, 50, 100, -9,
   -13, -90, 25, -104, -126, 110, 19, -43,
   -128, 103, 88, 118, 32, 102, -127, -40,
   13, 126, 69, 18, -123, -58, -26, 124,
   106, 122, 73, 127, 120, -11, -33, -23,
   -85, 45, -6, 62, -36, 46, -83, -62,
   24, 101, 22, -90, -38, -20, -40, -95,
   -24, -60, -126, -87, -14, -111, -38, -120,
   -32, -27, 44, 34, 51, 30, -123, 103,
   -13, -46, 25, -9, 3, -13, 37, 36,
   65, -37, 74, -52, 68, -26, 65, 40,
   -75, -10, 58, -10, -37, -30, -127, 35,
   -48, -29, -128, 115, -102, -64, -29, -9,
   -9, -41, -118, 9, -64, 117, -80, 44,
   -19, -68, 54, 12, 72, -48, 49, 6,
   7, 86, -27, -54, -92, 26, -29, -105,
   27, -12, -53, -24, 124, 56, -69, -2,
   17, 127, 106, -127, -46, -39, 71, 66,
   -80, 13, 127, 88, 34, 53, -9, 45,
   112, 112, -113, 71, 40, -86, -117, 66
};

static const rnn_weight vad_gru_bias[72] = {
   123, 19, -128, -127, 119, 3, 125, 67,
   125, -23, -128, 98, 127, 49, -25, -123,
   -100, -121, -103, -127, -128, -123, 78, -97,
   121, 42, -13, -24, 61, 40, 95, 36,
   118, 27, -19, 102, 115, 51, 67, 22,
   6, 34, 78, 36, -14, 88, 75, 31,
   6, 40, 27, 5, -65, -59, 80, 13,
   39, -15, 34, 26, 21, 31, -20, 48,
   -12, 44, -50, 32, 24, 3, -127, 25
};

static const GRULayer vad_gru = {
   vad_gru_bias,
   vad_gru_weights,
   vad_gru_recurrent_weights,
   24, 24, ACTIVATION_TANH
};

static const rnn_weight vad_output_weights[24] = {
   -125, 127, 127, -128, -65, -128, 74, 103,
   -128, -128, 127, 108, 89, -127, -128, 127,
   127, 127, -123, 127, 127, -128, -73, 127
};

static const rnn_weight vad_output_bias[1] = {
   -127
};

static const DenseLayer vad_output = {
   vad_output_bias,
   vad_output_weights,
   24, 1, ACTIVATION_SIGMOID
};

const struct RNNModel model_bd = {
    24,
    &input_dense,
    24,
    &vad_gru,
    1,
    &vad_output,
};
