/*
 * SUITE: conjoined-burgers-2018-08-28
 *
 * INTENT:
 *
 * General use in a reasonable recording environment. Fans, AC, computers, etc.
 *
 *
 * SIGNAL:
 *
 * voice
 *     hamlet-002-act-1-scene-1.1626
 *         http://etc.usf.edu/lit2go/94/hamlet/1626/
 *     human_rights_un_chi_nf.mp3
 *         https://librivox.org/universal-declaration-of-human-rights-by-united-nations-volume-02/
 *     human_rights_un_cze_msed.mp3
 *         https://librivox.org/universal-declaration-of-human-rights-by-united-nations-volume-02/
 *     huntingofthesnark_01_carrol_128kb
 *         https://librivox.org/the-hunting-of-the-snark-by-lewis-carroll-3/
 *     teacupclub_01_armstrong_128kb
 *         https://librivox.org/the-teacup-club-by-eliza-armstrong/
 *     warletters_01_allan_128kb.mp3
 *         https://librivox.org/war-letters-from-a-young-queenslander-by-robert-marshall-allen/
 *     TSPspeech
 *         http://www-mmsp.ece.mcgill.ca/Documents/Data/
 *
 * sounds
 *     cough
 *         https://freesound.org/ sounds: 205012 222644 252240 323532 342587 343880 343885 343986 369295 391284 401334 407839 419781 425777 87412
 *     laugh
 *         https://freesound.org/ sounds: 167578 189278 263775 319346 343934 344043 344064 367680 381275 383237 393353 401214 433921 73123
 *
 * music
 *     Danse Macabre
 *     Gymnopedie No 1
 *     Local Forecast
 *     Secret of Tiki Island
 *     Unpromised
 *         https://incompetech.com/music/royalty-free/
 *
 *
 * ./chopper voice/hamlet-002-act-1-scene-1.1626.raw voice/human_rights_un_chi_nf.raw sounds/cough.raw voice/human_rights_un_cze_msed.raw voice/huntingofthesnark_01_carrol_128kb.raw sounds/laugh.raw voice/teacupclub_01_armstrong_128kb.raw voice/warletters_01_allan_128kb.raw voice/TSPspeech.raw sounds/cough.raw music/Danse\ Macabre.raw music/Gymnopedie\ No\ 1.raw music/Local\ Forecast.raw sounds/laugh.raw music/Secret\ of\ Tiki\ Island.raw music/Unpromised.raw
 *
 *
 * NOISE:
 *
 * rnnoise_contributions (only "other" and "none" samples)
 *     https://people.xiph.org/~jm/demo/rnnoise/rnnoise_contributions.tar.gz
 *
 *
 * COUNT: 13212874 (x87)
 *
 * NOTE: All files processed into correct raws through ffmpeg: ffmpeg -i in -f s16le -ac 1 -ar 48000 out.raw
 */

/*This file is automatically generated from a Keras model*/

#ifdef HAVE_CONFIG_H
#include "config.h"
#endif

#include "rnn.h"
#include "rnn_data.h"

static const rnn_weight input_dense_weights[1008] = {
   -7, -20, -22, 13, -4, -54, 11, -9,
   -3, 0, 6, 23, 15, -20, -5, 12,
   25, 3, -22, 18, -4, -18, -16, -14,
   -35, -14, -17, 4, 36, -42, -30, -21,
   19, -10, 28, 9, -4, 6, -13, 1,
   -6, -32, 1, 31, -49, 14, 19, 0,
   -1, -35, -32, 29, -26, -29, -99, -40,
   -39, 13, -25, 22, 29, -15, -19, 8,
   -33, 52, 55, 44, -2, 35, 13, 9,
   -55, 54, -16, 50, -57, 60, -31, -20,
   -66, 16, 12, 50, 50, -8, -17, 5,
   26, -51, 29, -2, 10, 42, 24, 10,
   26, 50, 43, 67, 7, 34, 64, -12,
   -6, 1, 26, -1, 28, 22, 50, 7,
   29, 55, 41, 37, 28, -16, -32, -4,
   -69, -7, 40, 52, 57, -17, 58, -1,
   7, 31, 13, -48, 47, -4, -9, 5,
   -66, -59, 57, -9, 2, 6, -12, 20,
   -12, 106, 64, 65, 108, 7, -86, 65,
   123, 110, -67, -86, 107, 18, -89, -56,
   92, 94, 86, -13, 119, -63, -99, 3,
   -1, 8, -14, 16, -106, 40, -35, 25,
   104, -24, -93, -28, 51, -119, -125, 104,
   127, -110, -35, -66, -38, 7, 39, -11,
   -24, 127, 65, 15, 99, -20, 42, -6,
   127, -49, -116, -128, 20, -119, -118, -96,
   126, 121, -54, 73, 115, 64, -20, 118,
   -23, 118, 121, 83, 85, 63, -120, 122,
   63, -58, 17, 64, 104, -58, -120, -1,
   61, -52, -54, -100, 123, -47, -29, -6,
   21, 30, 53, -37, -18, -30, -120, 36,
   -4, -6, 9, -49, -19, 3, 27, -128,
   24, 106, -94, 4, 77, -27, -36, -23,
   -28, -121, 38, 92, 74, -32, 19, 35,
   -112, -37, 104, -46, -51, 120, -125, -81,
   -106, 5, 47, -57, 121, 0, 83, -52,
   -64, -8, 85, 23, 96, -50, 118, 71,
   -111, -84, 58, -5, -35, -72, 107, -6,
   83, 127, -128, 97, -64, 48, -97, -13,
   -52, 30, -46, 87, 73, 72, 56, 10,
   -92, -39, -4, -128, -101, 40, -118, 10,
   32, -38, -6, 106, -119, 2, -34, -84,
   -75, -118, -119, -19, -90, -72, -110, -48,
   -37, -19, -98, -112, 55, -99, 76, -80,
   61, 105, -111, 0, -125, -87, -119, -122,
   -100, -119, -110, 87, 63, -5, -117, -101,
   -59, 24, -26, -67, 56, -112, 83, -1,
   126, 72, -127, 127, -107, 60, -119, -118,
   -101, 23, 26, 49, 84, -18, -119, -98,
   -78, 127, -128, -128, -37, -122, -17, -55,
   109, -16, -94, -6, -112, 80, -91, -13,
   -51, 112, -78, 114, 10, 109, 38, -23,
   -52, -72, 89, -63, -61, 34, 3, 122,
   -93, 1, -62, 59, -114, -107, -128, -39,
   -45, 73, 56, 76, 121, 74, -76, 122,
   -33, 37, 31, 58, -93, 56, -13, -4,
   59, 101, -82, -13, -112, -53, -84, -34,
   -118, -23, -18, -60, 68, 32, -112, -4,
   -47, 105, -61, 59, -66, -34, -128, -62,
   24, -22, -45, -63, -88, -61, 20, 42,
   -38, 55, 35, -128, 46, -4, -55, -83,
   -127, -49, -76, -27, -78, 127, -51, 11,
   -47, 27, 88, 119, 30, 122, -115, 10,
   -54, 127, 32, -128, 78, -127, -32, -92,
   127, 88, -104, -125, 61, -113, -22, 5,
   84, -26, -54, 78, -97, -24, 113, -13,
   52, -49, -119, -13, -36, 17, -75, -88,
   -48, -10, 39, 35, 127, 127, 120, 127,
   -25, -3, 39, 127, -16, -128, -120, -78,
   -13, -120, 10, -41, 2, -104, -31, -103,
   -68, 94, -45, 106, 66, 127, 124, 127,
   -44, -28, 36, 97, 26, 92, -101, -99,
   -95, -122, -114, 107, -122, 11, -102, -113,
   -14, 102, -35, -6, 22, -23, -56, 65,
   -127, 57, -14, 91, 0, 102, -96, 112,
   50, 112, -110, -37, -94, 37, 15, -101,
   -17, -34, 127, 107, 20, 5, 119, 89,
   14, -46, -54, -67, -25, -39, 84, -1,
   85, 11, -78, 73, -24, -5, -50, -126,
   -22, 70, -12, -85, -5, 84, 19, -49,
   -59, 4, -73, 24, 3, 25, 15, 64,
   26, 91, -47, -46, 121, 28, 36, -84,
   49, 38, -5, -20, -6, 119, -84, 74,
   82, 3, -107, -81, 67, -123, -20, -71,
   -18, 16, 113, -89, 8, -128, -61, 25,
   25, -1, 25, 48, -44, 86, 111, 126,
   -67, 18, 106, -21, -26, 41, 71, -96,
   101, -37, -24, 102, -9, 68, -10, -13,
   -22, 89, 8, 48, 71, 61, 37, 0,
   -119, -30, 101, 20, 29, 72, -27, -64,
   -117, 1, 56, -36, 7, -98, 75, -6,
   111, 127, 67, -51, -92, 9, 70, 66,
   -66, 97, 80, -124, -72, 67, 56, -75,
   9, 44, -5, 13, -17, 71, 23, -57,
   47, 5, 28, -126, -15, -70, -107, 64,
   -4, -31, -95, 93, -109, 17, -1, -6,
   -22, 65, -24, -39, 27, -57, -29, 3,
   -36, 10, 63, 18, 71, 70, 11, -12,
   -14, 117, -12, -93, 71, 0, 10, 47,
   -94, 12, 1, -34, 0, 36, -4, 17,
   73, 11, -36, -22, 71, 88, -73, -22,
   -82, -51, 57, 90, 119, -84, 6, 2,
   117, -120, -120, -110, 127, -128, 127, -126,
   19, -128, 127, 127, 121, 116, -30, 127,
   -53, -10, 42, 121, 67, -32, 39, -127,
   121, -120, -120, -21, 127, -128, 121, -122,
   -89, -128, 127, 60, 121, -65, 127, 127,
   -5, 38, 11, 121, 57, -70, -125, -128,
   6, 49, -42, 121, -109, -19, 49, -65,
   -120, 22, -102, 23, 16, -108, 88, -49,
   90, -44, -69, 74, -21, -98, -85, -6,
   -14, -1, -86, 115, -20, -28, 127, 0,
   12, -15, 96, -26, -58, -4, 39, -51,
   -25, -89, 8, -9, 8, -27, 92, 47,
   2, 87, -72, 98, -30, -35, 122, -80,
   -9, 8, 24, 11, 12, -12, 13, 0,
   -30, -22, 7, -33, -78, 67, 99, 53,
   15, 89, 65, -100, 34, 38, -8, 99,
   31, 39, -19, 78, -36, 68, -65, -1,
   -67, 35, -64, -68, -117, -21, -8, 99,
   121, 50, -47, 106, -121, 30, -89, 61,
   65, -12, -49, -108, -57, -66, 12, 82,
   33, 39, -9, 28, 49, 49, 12, 19,
   76, 51, -90, 80, -61, -122, 50, 47,
   12, 4, 81, 36, 41, 8, 21, -26,
   55, 15, -51, -16, -79, -1, -118, -100
};

static const rnn_weight input_dense_bias[24] = {
   122, -52, -26, 127, -107, 124, 81, 61,
   -128, -5, -127, -118, 43, 54, -77, 61,
   -128, -67, 98, 9, 122, 101, 21, -44
};

static const DenseLayer input_dense = {
   input_dense_bias,
   input_dense_weights,
   42, 24, ACTIVATION_TANH
};

static const rnn_weight vad_gru_weights[1728] = {
   113, -120, 49, -37, 121, 83, 34, -73,
   -124, 83, -114, -128, -81, -112, 18, -102,
   -52, -71, 31, -45, -102, 67, -107, -116,
   -15, -60, 30, -51, 121, -39, -56, -24,
   -14, -15, -25, -121, -80, 68, -18, -33,
   -53, -75, 84, -28, 25, 115, -43, -79,
   -13, 31, 19, 26, -23, -23, 11, 108,
   18, 54, 61, 29, -56, -33, -12, -43,
   -16, -11, -33, -5, -12, -46, 25, 5,
   -39, -35, 0, 58, 16, 65, 61, 127,
   -40, 63, 107, -18, -23, 99, -71, -31,
   77, 127, 81, 127, 82, 58, 108, 83,
   -66, -20, 101, -35, -36, 80, 21, -17,
   126, -89, -122, 61, 36, -7, 29, 114,
   -9, 9, 88, 11, 31, -71, 108, -14,
   54, 69, -21, -124, -31, -9, -82, 111,
   -35, 13, 26, -74, -11, 90, -105, 63,
   90, 63, 11, -96, 121, 2, -93, -33,
   117, 49, -11, -15, 65, -25, 9, -21,
   -11, -17, -46, -29, -67, -23, 105, -71,
   16, 118, 29, 73, 36, 47, -30, 120,
   -76, 45, -10, -86, 81, 64, 18, -41,
   43, -80, -39, 14, 37, -124, -89, 107,
   -87, 48, 56, -48, 58, -3, 121, -119,
   -40, 52, 26, 13, -54, 33, -111, 34,
   -97, 19, -13, -4, 13, 123, -18, 59,
   41, 40, 25, 4, 56, 34, -44, -82,
   -36, -99, -4, -72, 114, 44, 115, -15,
   -76, 127, -90, -53, -63, 27, -11, -42,
   3, -57, 26, 107, -13, 38, 122, -112,
   104, -71, 101, -34, 30, 111, 127, -50,
   35, -8, -120, 77, 40, 91, 120, 124,
   18, 42, 35, -5, 95, -100, -43, 46,
   59, 22, 2, 13, 65, -13, -31, -35,
   14, -4, -3, -2, -8, 31, 45, -23,
   32, 18, -18, 36, -67, 36, -52, 30,
   94, -3, -121, 99, -120, -33, 42, -100,
   28, -77, -128, 52, 36, 25, 53, 6,
   45, 75, -120, -119, -76, 63, -82, 65,
   60, -25, -30, 30, -5, 34, -31, 41,
   -128, 27, 57, 51, -127, -118, -47, -31,
   -29, -82, -128, -86, -126, 52, -38, -31,
   -11, -77, 57, 0, -18, 19, 62, 20,
   95, -50, 35, 34, 20, 7, 13, -72,
   2, 54, -35, -1, -36, 17, 119, 11,
   110, 90, -80, -106, 127, 78, -85, 50,
   14, 51, 11, -113, -21, 4, -71, -2,
   -18, -125, 41, 127, 30, -55, 54, 111,
   -29, 54, 93, -97, 80, 10, -25, 33,
   10, 8, -45, 18, 61, -8, -38, -28,
   -90, -31, 119, -79, 4, -37, 71, -26,
   87, 12, 80, -38, 23, -21, -33, -25,
   -57, -22, 33, -43, -62, 11, 32, -7,
   31, 50, -19, -57, 6, 24, -12, -63,
   127, -127, 69, -119, 60, 81, -45, -124,
   -100, 75, -52, -118, -74, -127, -47, 73,
   37, -33, 71, -122, -49, -104, -112, -53,
   -52, -103, -98, 30, 41, 10, -38, 46,
   19, -87, -121, -81, -97, 35, -72, 101,
   47, 46, -44, 31, 66, 121, -34, -34,
   57, -13, 15, 37, 25, -68, 31, -44,
   -48, 58, 17, 39, 9, 40, -6, 34,
   30, 41, 41, 93, -57, -38, 55, 86,
   99, -113, 108, -105, 127, 117, 58, 84,
   -106, 123, -119, -122, -107, -112, -26, 23,
   51, -17, 122, 119, -111, 72, -30, -29,
   -53, -42, -31, 48, 6, -29, -18, -122,
   -58, -98, -23, -2, 102, -40, 20, 39,
   -9, 24, 127, -8, 80, -28, 125, -41,
   78, 27, -29, -115, -80, 63, -67, 32,
   -45, 65, 109, -9, -74, 119, -84, 76,
   127, 116, 36, -61, 21, 9, -78, 64,
   13, -112, 16, 95, -127, -117, 47, 124,
   117, -66, 0, -36, 6, -9, 53, 117,
   -56, 118, -2, 90, 80, 41, -91, 106,
   66, -10, 66, 29, -18, -47, 64, 55,
   -10, -39, 44, 101, -96, -93, -52, -18,
   -8, -20, -46, 48, -63, -95, 33, 14,
   -32, -37, 51, 8, 48, -25, 78, 54,
   -38, -27, 0, 75, 48, 67, -76, 93,
   -39, -50, -10, 1, -11, 64, 33, 28,
   0, 127, 52, -4, -76, 11, 100, 49,
   104, 117, 119, 127, -2, 112, -98, 107,
   22, 89, 124, 124, 111, -119, 116, 36,
   80, 74, 40, 24, -1, -65, -31, -56,
   -127, -27, 119, 75, 91, 43, 16, -13,
   127, 111, 52, 119, 40, 5, 59, 76,
   106, -65, -56, -8, 14, 41, -122, -5,
   -14, -60, 11, -35, -59, 51, 16, 21,
   47, -68, 7, -54, 41, 15, -108, 31,
   -12, -123, -35, 68, -128, -55, -73, 50,
   12, -81, 29, 61, -41, -9, 43, -78,
   1, -34, -55, -59, -53, 92, -10, -107,
   -14, 6, -36, 12, -14, 8, 90, 31,
   -87, 52, -27, 83, -123, -95, -55, 60,
   31, -115, -114, 16, -18, 4, 14, 15,
   -67, 14, -30, 43, -6, -61, 12, -32,
   68, 20, -96, 7, -3, -58, 28, -35,
   -27, -71, -18, 9, -71, 26, 10, -20,
   1, -30, -59, 93, -128, 22, -28, 1,
   -36, -29, 25, 20, 116, -19, -40, -100,
   7, -74, -1, -2, -109, 11, 79, -48,
   56, 46, 10, 1, -77, -15, -48, 56,
   -75, 21, 7, 55, -59, 6, 24, -113,
   52, 30, -37, 78, -62, 32, 34, 55,
   -64, -63, -68, 75, -29, -8, 0, -81,
   -7, 19, -6, 89, 11, 23, 98, -82,
   -111, -58, -3, 61, -20, -29, -10, -6,
   -75, 0, -3, -63, 38, 21, -34, 98,
   -24, -15, -5, -88, -31, 101, 17, -24,
   42, -111, -7, -3, 55, 103, 116, -10,
   38, 20, -58, -39, -23, -57, 5, 92,
   -61, 95, -84, -13, 32, 73, 79, -50,
   48, -33, -26, 32, -24, 90, -107, 70,
   -79, -45, 13, 33, -10, 70, 125, 6,
   27, 20, -44, 20, -16, -7, 72, -54,
   -32, -91, -24, -56, -4, 2, 71, -38,
   0, -112, -30, -34, 19, 93, -6, -23,
   -11, -30, -2, 18, 11, 32, 12, -71,
   -21, -95, 64, 1, -49, 50, -52, 103,
   30, 38, 70, -53, -24, 53, -51, 34,
   -23, 24, 116, 64, 12, 1, 36, -59,
   29, -103, 83, -11, -5, 13, 115, -32,
   -71, -71, -28, 46, -32, 12, -28, -61,
   19, -10, 58, 52, 10, 28, -12, -24,
   -64, -65, 4, 15, -7, 9, 101, -62,
   -116, 18, -63, -2, -72, -110, 65, -123,
   -17, -100, 34, -9, 48, -9, 58, -53,
   -73, -15, 26, -86, -102, -49, 23, 28,
   46, 12, -118, 92, -55, -128, -10, -9,
   -53, -54, 82, 91, 37, 50, 19, -95,
   110, 51, 97, 12, 0, -61, -20, 127,
   -34, -72, -62, 80, -79, -36, 91, 4,
   -5, -97, 58, 100, -32, 52, 44, -88,
   -60, -52, -65, 27, 43, -128, -20, -98,
   39, -121, 15, -73, 20, 12, -51, 33,
   -56, -100, 57, -28, -52, -22, 61, -86,
   51, 50, 98, -11, -119, 5, -75, 76,
   111, -103, -124, 33, 61, 65, 127, 86,
   96, -37, -65, -42, 21, 53, 127, 66,
   100, -54, 8, 29, 25, -128, -3, 103,
   -11, -23, 79, 103, 31, 59, 75, -29,
   57, 41, 127, 88, 4, -125, 127, 4,
   -83, -80, -35, 24, -67, -127, -17, -120,
   -25, -45, 16, 19, -113, -99, 84, 120,
   127, -73, 50, -38, -55, 68, 7, 91,
   108, 121, -77, 110, 91, 119, 124, 64,
   18, -10, -61, 3, -128, -81, 127, 4,
   19, -90, 12, 127, 63, -61, 25, 59,
   75, -104, -51, 75, 87, -128, -40, 5,
   65, -9, -61, -85, 28, -5, -11, 0,
   -29, -76, -3, -2, 18, -53, -1, -5,
   19, 7, 4, 30, -17, 51, 5, -21,
   -87, 67, -70, 82, 8, -51, 43, -117,
   -47, 85, -91, 104, -1, 62, -91, -21,
   -76, -111, 12, -120, 16, -33, 30, 37,
   -7, 35, -9, 17, 65, -1, -128, 38,
   3, 26, 35, 16, -10, 64, -13, -42,
   -106, 31, 55, 4, 22, 100, -50, -36,
   54, 67, -2, -108, -82, 83, -14, 67,
   10, 10, -54, -35, -85, 67, 15, 24,
   16, 99, 3, -70, 65, -115, -15, 50,
   53, 123, -109, -13, 119, 9, 1, -118,
   -116, 88, 54, 27, -8, -18, 68, -120,
   -116, -117, -14, -95, -118, -119, 32, -25,
   10, 100, -11, -82, 19, -28, -53, -24,
   58, -39, -17, -37, -113, 43, 49, -89,
   -111, 50, 67, -37, -36, 109, 58, -79,
   14, 61, 44, 14, -40, -23, 47, 13,
   -38, 23, -66, -2, -61, 59, 28, 63,
   1, -44, 20, -10, 107, -102, 14, -41,
   8, 10, -19, 27, -73, -122, 20, -12,
   44, -47, -52, 104, -37, 107, -3, -58,
   -62, -31, -13, -119, 97, 102, 54, -46,
   88, -66, 25, 26, -106, 21, 39, 47,
   89, 21, -12, -18, -30, 34, -20, -8,
   34, -52, 20, -80, -75, 9, -128, 32,
   -1, 0, -8, 62, 24, 44, 64, -36,
   53, -6, -30, 53, -38, -123, 13, -57,
   -25, -30, -47, 85, -81, 25, 36, -120,
   -35, 47, 25, -80, 127, 102, -52, -64,
   -101, 104, 47, -33, -17, 2, 94, -65,
   6, -2, 24, 40, -97, 5, 16, 34,
   82, 110, 18, -56, 84, 64, 63, 16,
   19, -46, -29, -68, 103, -9, 32, 46,
   -13, 85, 19, -33, 77, 32, 73, -12,
   44, -34, -15, -78, -62, 79, 1, 43,
   -43, 59, 31, 23, -36, 20, -63, -12,
   32, 61, 28, -3, 24, 50, 5, 4,
   -106, 105, -31, -115, 19, -42, -10, -120,
   17, -57, -126, -12, 19, -104, 14, -42,
   35, -49, -85, -56, -107, -119, -122, -91,
   6, -2, 42, -74, 54, 72, -5, -33,
   -34, -47, -20, -63, -75, 105, -25, 20,
   -13, 96, 31, -125, 5, 34, -49, -13,
   -37, -28, -5, -91, -51, 75, -14, 10,
   -76, 19, -53, -82, -67, 107, -55, 45,
   15, 62, 68, -27, 12, -24, -90, 61,
   76, 25, 33, 67, 93, 44, -94, -120,
   115, 71, 12, 12, 3, -11, -20, -76,
   30, 108, -56, -35, 28, -12, -123, 35,
   -96, -64, 1, -113, 62, 127, 106, -47,
   102, 90, -68, -31, -87, -49, 74, -7,
   -47, -45, -90, -14, -47, -78, 69, -56,
   10, 72, -24, 36, 21, -52, -80, -46,
   -67, 95, -27, -21, 22, 36, 13, 96,
   -31, -48, -18, 7, 50, 67, -26, -21,
   55, 100, 52, 69, -61, -44, -31, 12,
   82, 121, 72, 115, -11, 127, 8, -6,
   6, 93, 52, 97, 126, -64, 78, -5,
   15, 94, 37, -18, -114, -4, 45, -128,
   12, -75, -50, 100, 37, 27, -52, 7,
   -31, 123, 95, 73, -76, -110, 92, -26,
   127, 99, 42, -111, 51, -40, -120, 49,
   -108, 26, -11, -101, 13, -54, -49, 92,
   47, -54, 23, 2, 26, 103, -65, 24
};

static const rnn_weight vad_gru_recurrent_weights[1728] = {
   -102, 43, -24, -86, 127, 105, 23, -26,
   -17, 29, 60, 62, 55, -42, 24, 9,
   -51, 36, 117, 33, -27, 58, 51, 40,
   -43, 31, -36, -4, -28, 7, -68, 46,
   90, 44, 3, 29, 113, -14, 25, -44,
   45, 113, 92, 89, 3, 46, 27, 40,
   -8, 19, -27, 10, -110, 8, 25, -16,
   -13, 127, 64, -3, 43, 14, 22, -8,
   -45, -81, -42, 25, -36, 28, -35, -2,
   -41, 36, -72, -66, 73, -99, -75, -65,
   -59, -120, 98, 21, 127, 29, -93, -122,
   75, -34, 41, -13, 2, 58, -36, 90,
   -57, 56, -45, 5, -20, -11, 16, 40,
   -60, -40, -44, -21, 1, 36, -31, 2,
   56, -24, 30, -20, -20, -46, 21, 12,
   -29, 53, -113, -125, 110, -21, -48, 30,
   -64, -81, 0, -59, -42, 58, 1, -33,
   -1, 1, 127, -86, 97, 38, -37, 33,
   -98, 41, -73, 99, 127, -112, 117, -29,
   111, -115, -122, 83, -87, 54, 101, 29,
   -106, 50, 76, -51, 21, 106, 31, 56,
   -46, 17, -41, -83, -7, -61, -91, 60,
   100, 35, -122, 53, -8, -43, -31, -46,
   -14, 52, 74, 30, 72, 99, -31, -79,
   9, -14, 36, 112, -98, 23, 89, -57,
   6, -48, 85, 54, 38, -10, 83, -33,
   -98, -54, -113, 101, -56, 8, 96, -21,
   107, -127, 24, 28, -6, 34, 20, -110,
   67, 105, -28, -94, -123, -36, 2, -9,
   -103, -65, 4, -59, 2, 35, 7, -128,
   75, 9, 18, -7, 55, 102, 33, 54,
   77, -5, 51, -10, -24, 59, 24, 34,
   -84, -66, 18, 61, 43, 3, -94, -40,
   -36, 57, -6, 96, 21, -38, 97, -5,
   36, -23, -2, 51, 8, -29, 32, -65,
   -113, -38, -71, 0, -17, -66, -2, 11,
   -127, -3, 76, -128, 112, 127, -121, -21,
   -94, 89, 127, -73, -15, -119, 127, -81,
   124, -84, -124, -68, -120, 78, -19, -4,
   -93, -26, -91, 16, 58, -1, -120, 76,
   -26, -123, 3, -61, -64, 107, -55, -7,
   -100, -52, 80, -89, -67, 80, -9, 37,
   108, 61, -18, -114, 117, -22, 76, 111,
   -112, 70, -26, -103, -107, 111, -72, 108,
   -9, 109, 81, -102, 90, -114, -71, -10,
   -66, -21, 117, -81, 127, -11, -19, -88,
   12, -128, 82, -106, 0, -34, 71, 59,
   -128, -46, 94, 91, 98, 81, -128, 19,
   18, 28, -82, 55, -25, -28, -67, -40,
   99, 65, -41, 38, 97, -43, 9, -9,
   -17, 52, 29, -10, 106, -47, -45, 44,
   -23, -79, 21, 45, -63, 102, -12, -100,
   115, -13, 108, 27, 70, -49, 40, -84,
   25, -111, -75, 84, -38, -19, 93, -35,
   24, -72, 82, -128, 46, 88, 15, -58,
   -6, 34, -66, -128, -46, -21, 123, 54,
   -45, -49, -48, -128, -107, -60, -112, -20,
   19, 61, -17, 8, 67, -57, 17, 93,
   13, 13, -27, 94, 45, 16, 46, 34,
   -64, 107, 29, 0, 3, 83, -52, 76,
   -6, -77, -60, 109, 58, -56, 38, -57,
   127, -45, 46, 63, 123, -124, 85, -115,
   -110, -104, -77, 105, -71, -118, 0, -17,
   -128, 20, -82, -18, -6, -128, -35, -128,
   -96, -127, -76, 80, -5, 2, -70, -18,
   99, 46, 6, -105, 6, 19, 90, 118,
   -33, -117, -2, -17, 36, -31, 1, -41,
   16, -36, 24, -42, -24, -8, 9, 36,
   81, 31, -8, 8, -73, 23, 36, 28,
   7, -5, 29, -106, 13, -7, -21, 104,
   -47, 7, -66, -33, 4, -8, -77, 13,
   27, 62, -14, -9, 26, 91, -79, 124,
   18, -11, 107, 15, -85, 14, 106, -12,
   127, 15, -43, -37, -75, 50, 66, 94,
   -52, -50, -90, -53, 5, -22, -96, -127,
   94, 3, 120, 24, -40, -22, 76, 79,
   -11, 122, -1, 41, -9, 37, 27, 7,
   -11, -21, 46, 72, -27, -63, -34, 45,
   -7, -123, -22, 86, 6, 75, -56, -85,
   116, 32, 0, 117, 78, -12, 9, 4,
   -81, -79, -51, 50, -84, -88, 22, 8,
   -105, 6, 57, -114, 127, 105, 8, -70,
   -4, -40, 46, -101, 11, -35, 95, 61,
   -128, -105, 123, 119, 2, 86, -71, -4,
   -8, 49, 42, -120, 58, 76, 99, 11,
   66, 79, -7, -13, 50, 9, 80, 108,
   -3, 23, 92, 61, 118, 44, 13, 25,
   -51, -62, 30, 46, 20, 43, 24, -70,
   44, 46, 48, 59, 49, -29, 25, -39,
   -86, -112, -64, 47, 6, -34, -13, -117,
   8, -123, 123, 76, 127, 117, 56, 120,
   60, 114, 105, 4, 22, -70, 119, 63,
   -126, -86, 121, 113, -1, 18, 45, -62,
   13, -25, -74, -16, 3, 35, -83, -35,
   17, -17, 33, 11, 19, -41, -70, -9,
   -84, -106, 32, 12, 49, 39, -14, -67,
   -33, -74, 43, 116, 88, -63, -30, -128,
   62, -6, 127, 21, -7, -45, 29, -1,
   16, -48, -86, 127, -125, -35, 31, -109,
   34, -29, 87, 107, 55, 90, 127, 68,
   127, 64, -103, 49, -126, 54, 98, 106,
   22, 71, -111, -41, 56, 48, 87, -1,
   17, 38, 5, -10, 19, 33, 77, 23,
   74, 54, 41, 88, 28, 8, -15, 42,
   -30, 16, 11, 77, 100, 25, -56, -15,
   -2, -128, -5, 125, 29, -20, 50, -48,
   109, 42, 43, 78, 43, -63, -27, -87,
   -126, -111, -62, 70, -114, -111, 87, -60,
   48, 45, 46, 127, -19, 45, 127, 127,
   127, -6, -9, 118, -33, 110, 125, 127,
   -38, 127, -23, 105, 116, 95, 118, -53,
   -7, 20, 58, 15, 10, 36, 36, 96,
   115, 28, 4, 95, 2, -14, 6, 15,
   -84, -13, -12, 88, 16, -87, -23, 30,
   -44, -116, -8, 127, -34, -58, -10, -6,
   64, -103, 23, 87, 127, -16, -65, 79,
   -102, -127, -127, 0, -73, -110, 35, -91,
   -27, -121, 1, -126, 24, 114, 69, 42,
   69, 19, 5, -127, -45, 41, 35, 93,
   -69, 53, 126, 127, 7, -104, 80, -14,
   42, 11, 33, -37, 48, 23, -70, 2,
   -54, 23, 119, 4, 67, -55, -24, 25,
   86, -8, -32, -17, -15, 2, 100, -74,
   -10, 65, 10, 3, 11, -27, -51, 49,
   -50, 0, -85, -92, -127, 89, -110, 121,
   79, 69, 59, -122, -11, 0, -102, 127,
   90, -13, 77, -128, 45, 72, -28, -75,
   66, 98, -5, -110, -3, -31, 127, 127,
   -94, -107, 34, -30, -70, -79, -110, -25,
   -23, 55, 13, -87, -1, 7, -8, 10,
   51, 9, -104, 91, 35, 23, 88, 17,
   -19, 112, 96, 7, 20, 1, -120, -90,
   -19, -73, -11, 104, 122, 10, 71, -73,
   123, -18, 47, 101, 115, -33, 84, -71,
   -99, -120, -36, 125, -73, 1, 81, -68,
   -17, -5, -71, 115, 25, 3, -39, 50,
   -9, -53, -6, 24, 80, 59, -62, -125,
   71, 56, 86, 127, 48, 87, 127, -6,
   -79, -54, -32, -98, -35, 47, -31, -26,
   28, -45, 12, -2, -71, 34, 8, -11,
   -23, -45, 10, -34, -17, 11, 59, -35,
   23, 123, -55, -70, -87, 78, -96, 100,
   -121, 61, 28, -19, -49, 89, -93, 94,
   64, 39, 46, -72, 86, 9, -41, 56,
   -98, -89, -38, -118, -75, -85, -116, -128,
   -116, -60, -27, -35, 59, -99, -74, -102,
   -41, -5, 88, -24, -118, -94, -127, 63,
   -15, -39, -84, 13, -11, -26, -23, -29,
   -29, -20, -36, 11, -13, -7, 41, 91,
   72, -28, -8, -17, -28, 10, -70, 44,
   115, 12, 117, -35, -12, 113, 44, -91,
   -25, 103, 101, -76, -58, -69, 95, -30,
   49, 60, 68, 16, 39, 68, -68, 85,
   -119, -108, -22, -128, 66, 37, -115, -128,
   -105, -53, -28, -109, -30, -101, -57, -104,
   56, -110, 53, 63, -94, -118, -78, 53,
   16, -28, -70, 76, 27, 11, -66, 0,
   6, -45, -110, -83, -58, -19, -34, 17,
   32, 6, 11, -93, -67, 49, -41, 33,
   72, 32, 37, -127, 66, -29, 11, 89,
   -104, 33, -102, -72, -124, 2, 103, -21,
   127, 127, 49, 21, 56, 55, -81, 94,
   -123, 124, -110, -91, -38, -23, -56, -57,
   -117, -127, 122, 17, 88, 48, -84, -99,
   103, -26, -63, -112, -13, -48, -95, 99,
   -52, 90, -1, -2, -37, -119, -12, 55,
   89, -103, 6, -15, 3, 107, -16, -116,
   -70, 14, 22, 86, 12, -16, 67, 96,
   -87, 127, -118, -121, 68, -127, -46, 116,
   -90, -118, -124, -122, -48, 92, -66, -3,
   79, 127, 82, -110, 116, 44, -50, 52,
   120, -123, 61, -115, 77, 118, 68, 119,
   54, 126, 80, -101, -72, -76, 109, 76,
   -103, -73, -4, 43, -58, 11, -50, -119,
   70, 26, -50, 111, 13, 71, -15, -16,
   28, 65, -5, 48, -31, 20, 37, 46,
   37, -9, -11, 41, 1, 10, -47, -20,
   13, -119, 18, 94, -16, 8, 103, -114,
   6, -28, 78, 118, 75, -6, 72, 14,
   -38, -42, -126, 66, -85, -126, 110, -127,
   -70, 104, -86, -34, -5, -116, -75, -52,
   -128, -45, 64, 1, 86, 75, -128, -27,
   40, 59, 78, 30, -9, -46, 15, 118,
   -26, 3, 29, 1, 0, -72, -79, 32,
   -50, -88, -1, -77, 11, -42, -12, -1,
   -11, 20, -66, 5, -83, 51, 117, -1,
   104, 93, 9, -126, -54, -67, -63, 49,
   -81, -2, -89, -64, -110, 5, -32, -33,
   109, 91, 85, -128, 36, 111, -49, 122,
   -33, 20, -99, 26, -4, -57, -72, -91,
   -86, -127, -72, -3, 107, -18, -125, -17,
   95, 113, 31, 3, -71, -13, -105, 20,
   -33, -23, -84, -13, -81, 22, 65, -90,
   -62, -11, 70, -78, -71, -65, -61, -69,
   50, -30, -44, -64, -93, -42, 4, 8,
   -87, 14, -64, 92, 46, -18, 75, -118,
   75, -92, 31, 11, 70, 6, 86, -61,
   -31, -109, 64, 41, -106, 0, -1, -121,
   24, 94, -85, 127, -5, -8, 0, 76,
   77, -41, -128, 72, -72, 83, 4, 23,
   -55, -30, -123, -120, 5, 92, 89, 19,
   26, 41, -51, -6, -39, 9, -53, -53,
   -23, 52, -57, 70, 2, -58, -123, -45,
   -76, -85, -52, 4, -41, 91, 30, 3,
   -128, -84, -42, 127, -47, -25, 59, -51,
   38, -119, -30, 127, 84, -108, -1, -72,
   -45, -85, -118, 86, -29, -75, 73, -88,
   -63, -53, -54, -22, -59, -70, -107, -126,
   -79, -12, -85, -88, 115, -26, -128, -107,
   105, 16, 45, -105, -121, -119, -93, 123,
   -2, -47, 38, -1, 27, 8, -68, -10,
   -43, 4, 24, -76, -51, 3, 48, -38,
   35, 26, -47, -55, -61, 50, 27, 65,
   65, 26, 29, -100, -36, 97, -28, 0,
   -63, 109, -73, -127, -35, 39, -25, 31,
   -11, 98, 66, -39, 55, -70, -91, 57
};

static const rnn_weight vad_gru_bias[72] = {
   -78, -70, 122, -124, 127, 119, -107, -72,
   -88, 117, 127, -128, 12, -102, 35, -50,
   -22, -112, 76, 119, -80, -99, -104, -92,
   10, 34, 53, -24, 72, 92, 57, 0,
   -10, 13, 63, 28, 127, 28, 113, 83,
   37, 19, 127, 47, 79, -28, 55, 46,
   44, -11, -4, 59, 53, 4, 50, -53,
   19, 78, 62, 25, -48, -15, 42, -31,
   -69, 8, 29, 13, -20, -43, 10, -36
};

static const GRULayer vad_gru = {
   vad_gru_bias,
   vad_gru_weights,
   vad_gru_recurrent_weights,
   24, 24, ACTIVATION_TANH
};

static const rnn_weight vad_output_weights[24] = {
   -128, -35, 127, 127, -99, -128, 127, -128,
   -125, 123, -103, 127, 127, -128, 127, -128,
   -128, -128, 93, -114, -128, -128, 127, -128
};

static const rnn_weight vad_output_bias[1] = {
   127
};

static const DenseLayer vad_output = {
   vad_output_bias,
   vad_output_weights,
   24, 1, ACTIVATION_SIGMOID
};

const struct RNNModel model_cb = {
    24,
    &input_dense,
    24,
    &vad_gru,
    1,
    &vad_output,
};
