/*
 * SUITE: leavened-quisling-2018-08-31
 *
 * INTENT:
 *
 * Voice in a noisy recording environment.
 *
 *
 * SIGNAL:
 *
 * voice
 *     hamlet-002-act-1-scene-1.1626
 *         http://etc.usf.edu/lit2go/94/hamlet/1626/
 *     human_rights_un_chi_nf.mp3
 *         https://librivox.org/universal-declaration-of-human-rights-by-united-nations-volume-02/
 *     human_rights_un_cze_msed.mp3
 *         https://librivox.org/universal-declaration-of-human-rights-by-united-nations-volume-02/
 *     huntingofthesnark_01_carrol_128kb
 *         https://librivox.org/the-hunting-of-the-snark-by-lewis-carroll-3/
 *     teacupclub_01_armstrong_128kb
 *         https://librivox.org/the-teacup-club-by-eliza-armstrong/
 *     warletters_01_allan_128kb.mp3
 *         https://librivox.org/war-letters-from-a-young-queenslander-by-robert-marshall-allen/
 *     TSPspeech
 *         http://www-mmsp.ece.mcgill.ca/Documents/Data/
 *
 * sounds
 *     cough
 *         https://freesound.org/ sounds: 205012 222644 252240 323532 342587 343880 343885 343986 369295 391284 401334 407839 419781 425777 87412
 *     laugh
 *         https://freesound.org/ sounds: 167578 189278 263775 319346 343934 344043 344064 367680 381275 383237 393353 401214 433921 73123
 *
 *
 * ./chopper voice/hamlet-002-act-1-scene-1.1626.raw voice/human_rights_un_chi_nf.raw sounds/cough.raw voice/human_rights_un_cze_msed.raw voice/huntingofthesnark_01_carrol_128kb.raw sounds/laugh.raw voice/teacupclub_01_armstrong_128kb.raw voice/warletters_01_allan_128kb.raw voice/TSPspeech.raw
 *
 *
 * NOISE:
 *
 * rnnoise_contributions
 *     https://people.xiph.org/~jm/demo/rnnoise/rnnoise_contributions.tar.gz
 *
 *
 * ./noise-chopper *.raw
 *
 *
 * COUNT: 10000000 (x87)
 *
 * NOTE: All files processed into correct raws through ffmpeg: ffmpeg -i in -f s16le -ac 1 -ar 48000 out.raw
 */

/*This file is automatically generated from a Keras model*/

#ifdef HAVE_CONFIG_H
#include "config.h"
#endif

#include "rnn.h"
#include "rnn_data.h"

static const rnn_weight input_dense_weights[1008] = {
   2, -7, 5, -3, -2, -18, 0, 6,
   -3, 1, 5, 1, -18, -2, -2, 8,
   -8, 12, 19, -10, -43, 8, 5, 3,
   -13, 9, 23, -8, 16, 29, -9, -10,
   1, -13, -20, 39, 0, 18, -22, -15,
   -46, -1, 1, 8, 10, -25, 18, 23,
   -30, -1, 42, -8, 6, -18, -13, 31,
   3, 2, -32, 9, -2, -28, -44, -29,
   -41, 23, 14, 7, -37, -35, -11, 11,
   1, -18, 19, 15, -7, 19, 3, 10,
   -7, 34, 4, -20, 16, 53, -37, -62,
   27, 48, 2, 3, 29, -31, 19, -26,
   5, -37, 1, 14, 2, -68, -9, -63,
   -8, -17, 24, 48, 22, -23, -13, -62,
   -9, 9, -12, -22, -56, 9, -53, -25,
   -9, -5, 18, 11, -9, 41, -16, -48,
   16, -48, -2, -5, -19, 73, -19, -36,
   -18, -25, 8, -23, 80, -45, 38, 1,
   -65, -40, -59, -27, -90, -122, 29, -66,
   -2, -56, -28, -124, -10, 10, -17, 123,
   67, 97, 34, -86, -78, -20, -110, -110,
   -1, -6, -72, 98, 89, -21, -37, 0,
   -6, 15, 127, -17, 11, 121, -128, 127,
   65, 30, -102, -86, 50, -20, 15, -69,
   -88, -72, -86, 69, -58, -100, -43, -2,
   57, -99, 106, -102, 120, -125, -101, 126,
   74, 100, -50, -73, -61, -99, -111, -126,
   -53, -87, -18, 71, -125, -26, 31, -101,
   -7, 4, 56, -95, 0, 76, -55, -52,
   79, 18, 51, -99, 3, -74, 2, -87,
   -10, -26, -127, -10, 33, -90, 75, 126,
   1, 64, -22, -20, 28, 23, 19, 106,
   127, -76, 70, -41, 80, 9, -125, 89,
   -63, 83, -48, 4, -41, 51, 126, -30,
   -68, 72, -126, 65, 30, -18, -13, 126,
   114, -82, 19, -124, 107, 28, 32, 14,
   -4, 35, 127, 18, -38, 55, -12, -122,
   119, -79, 127, -53, 59, 31, 120, -76,
   -117, 17, 105, 13, -128, 127, -100, 80,
   -49, 68, -12, 34, 59, -61, 2, 55,
   23, 11, 4, 118, 125, 86, 72, -127,
   -60, -72, 33, -67, 19, -63, 92, 114,
   47, 12, -125, 32, 40, -82, -127, 93,
   54, 122, 112, -24, -112, 31, 120, 18,
   -57, -54, -20, -122, 61, -11, -97, 94,
   40, -126, -22, -6, 40, -87, -126, 28,
   25, 127, 44, -46, -17, 122, -13, -33,
   -40, 115, 15, -61, 127, -32, 49, 84,
   27, -68, -50, 12, 95, -93, -100, 126,
   75, 24, 65, -55, 32, -92, 126, 15,
   -122, 126, -83, -67, -122, -128, -7, -12,
   75, 95, -41, 127, -55, 48, -126, 8,
   123, 80, -3, -31, -126, 95, -72, -123,
   -48, 127, 58, -35, 91, -128, 36, 95,
   26, -79, -85, 127, 17, -102, -109, 23,
   86, -19, 85, -33, -112, 98, 114, -10,
   -124, -61, 77, 85, 84, -121, -125, 48,
   -25, -99, -126, -36, -69, -86, 113, 99,
   -7, 127, -127, -12, 127, -82, -70, 79,
   -128, 125, -87, -121, -125, -128, 46, -94,
   78, -47, 46, 28, 71, -127, 54, 83,
   127, 120, -127, 124, 126, 26, 103, -106,
   -54, 89, -38, 105, -88, -75, -80, 4,
   -71, -38, -63, 25, 52, 104, -10, 69,
   102, -50, 126, 127, -70, 72, 49, 127,
   -123, 34, -76, 14, -93, -117, 81, -67,
   127, 5, 76, 100, -98, -68, -116, 127,
   -45, -128, -77, 18, 12, 125, -87, -20,
   21, 102, -29, -53, 10, 48, -8, 101,
   22, -4, 22, -12, 127, -87, -126, 51,
   -128, -119, -122, 66, 78, 3, 32, 60,
   -28, 40, 30, 4, 56, 56, 18, 82,
   -104, 58, -47, -56, -41, -47, -113, 127,
   12, -19, -95, 56, 16, 51, -127, -51,
   -118, 29, 9, -16, 66, -33, 11, 121,
   56, 21, -70, 10, -20, -21, -11, 76,
   -29, 6, 71, -35, -62, 55, -52, -2,
   -108, 31, -34, -33, 73, 121, 41, -123,
   -67, -80, -18, -44, -2, -35, -105, -59,
   -69, 81, -86, 55, 74, 61, -57, -117,
   17, -1, 37, 20, -84, -7, -77, -10,
   35, 15, 3, 70, -39, 4, 26, -12,
   58, 23, 35, -80, -14, -7, -85, 32,
   -127, -21, -113, -98, 69, 96, -47, -67,
   124, 9, -1, 120, 12, -71, -9, 44,
   -31, 113, 6, 13, 9, -44, -13, 31,
   -21, 65, 2, -45, 15, 51, 15, 92,
   26, 34, 10, 32, 92, 98, 7, 108,
   -15, 56, -19, 51, -45, 79, -8, 11,
   -28, -31, -11, -9, 40, 38, -57, 21,
   18, 34, -125, -46, 57, -7, -23, -50,
   45, 70, 38, 12, -28, -51, -4, 61,
   -123, 49, -59, -12, -80, 59, 19, 78,
   45, -31, -52, 33, -38, 127, -115, 49,
   -19, -32, 85, -10, 77, 26, -77, -69,
   104, -112, -91, 26, -78, 44, -65, -23,
   26, -15, -118, -127, 79, -126, -4, -37,
   33, -11, 14, 52, -15, 18, -69, -55,
   -76, 93, -12, -69, -44, 15, -18, -63,
   -15, 94, -99, 77, -46, 111, -13, -77,
   14, -43, 0, 68, -37, 93, 106, -16,
   -91, 127, -37, 13, -27, -39, -50, 17,
   27, 115, 125, 111, -117, 22, -128, 16,
   127, 127, 47, -18, -54, -24, -115, -99,
   -47, -15, 66, 127, 32, 91, 46, 125,
   86, 66, 127, 86, -101, -52, -127, 122,
   126, 93, 100, 17, -126, 98, -99, -81,
   62, -15, 69, 90, -17, 75, -6, 127,
   121, -61, -41, -24, 10, 115, 99, 44,
   -73, -41, 121, 17, 38, 33, -40, -8,
   56, 50, -64, -60, 98, -10, -56, -62,
   80, 123, -13, 15, 23, 80, -127, 81,
   127, 69, -67, -16, -85, -14, -38, 59,
   -61, -56, 32, 127, -40, 4, 40, 33,
   33, 6, 117, -35, -4, 71, -6, 92,
   126, 66, 83, 17, -87, -31, 7, 17,
   -8, -103, 0, 121, -34, -54, 38, 50,
   66, -98, -25, -17, 49, -49, 121, -58,
   -92, -87, -1, -29, 127, 63, 13, 91,
   0, 111, -59, 26, -28, 127, -19, -118,
   -11, 36, 124, 29, 16, 26, 50, 26,
   9, -40, 82, -25, 39, -78, -23, 1,
   -25, -26, -13, -113, 17, -10, -19, -18,
   67, -24, -28, 127, 4, 56, 17, 23,
   13, 83, -5, -27, 48, -15, 10, -65,
   -46, -22, 47, 28, 127, 25, 12, 18
};

static const rnn_weight input_dense_bias[24] = {
   -11, 127, -60, 4, 127, 125, 20, -58,
   -127, 22, -74, 41, 103, 41, 25, -125,
   93, -59, -127, -26, -1, -128, 41, -1
};

static const DenseLayer input_dense = {
   input_dense_bias,
   input_dense_weights,
   42, 24, ACTIVATION_TANH
};

static const rnn_weight vad_gru_weights[1728] = {
   -10, -117, 52, 91, -127, -32, -128, -96,
   50, -114, 24, 25, 54, 28, -122, -127,
   -97, -125, -27, -20, -70, 21, -10, 17,
   123, 50, 126, 7, -121, 32, 88, 2,
   9, -116, 37, -84, 17, 32, -26, -120,
   -31, 21, 33, -54, -50, -47, 127, -36,
   -109, -100, -16, 47, -114, -120, -65, 86,
   26, 121, -77, -22, 43, 14, 4, 40,
   -122, 122, 6, -43, -128, 50, -14, -5,
   -126, -97, 23, -121, -58, 68, -10, -111,
   -122, -39, 127, -25, -103, 34, -55, -50,
   37, 4, -126, 96, -37, 127, -26, 127,
   41, -57, -25, 127, 14, 98, 5, 22,
   6, -83, 71, -77, 96, -18, -126, -100,
   26, -11, 45, 12, 23, 127, -51, 126,
   3, 99, 49, 14, 26, -27, 16, -50,
   34, 34, 73, -82, -10, 7, 48, -90,
   41, -2, 19, 40, -16, 13, -19, 57,
   -65, 60, -37, -126, 74, -56, -25, 96,
   -115, -39, -79, -47, 73, 71, 125, 22,
   41, 51, -124, -123, -127, 50, 127, -39,
   23, 92, -69, 126, 108, -125, -128, -95,
   -88, -86, -85, 47, -72, -45, -100, -127,
   126, -112, 127, 14, 127, 66, -127, 14,
   -34, 32, 21, -90, -56, -43, -5, 123,
   -85, 26, -13, -94, 15, -23, -110, 59,
   -12, 41, 16, 40, -59, -20, -14, 27,
   65, -117, -126, 35, -42, -84, -23, -125,
   -90, -118, -128, -127, 32, 126, -127, -66,
   -126, -126, -82, -53, -110, -69, -128, -50,
   -44, -35, -38, -110, 54, 93, 13, -16,
   -71, -128, 124, -118, -13, 125, -84, -56,
   53, -16, -93, -43, -113, 10, 87, 68,
   -123, -34, 43, 83, 35, -20, -39, 63,
   -54, 122, -45, -114, 59, -120, 2, -35,
   -78, 127, 97, 54, -78, -48, 48, 50,
   -123, 40, 127, 124, 25, 127, 58, -63,
   94, -63, -46, -58, -37, 126, 96, 121,
   -64, 1, 84, 106, 14, 127, 102, -57,
   31, 27, -21, 126, 51, -69, -127, -31,
   16, 20, -121, 57, -32, -50, 6, 41,
   101, -125, 79, -9, 42, 61, -60, 54,
   33, 47, -90, 35, 108, 35, 80, -49,
   50, 11, 77, 28, -9, 9, -34, -13,
   72, -98, -17, -51, -31, -15, 87, -12,
   -71, -30, 22, 87, -81, -24, -68, 22,
   -36, -69, -42, -123, -41, 127, -59, -19,
   -24, 31, -52, 51, 31, 127, -97, 88,
   99, -21, 91, 39, 46, -53, 60, -4,
   -87, -20, -27, 47, 4, 47, -40, -41,
   4, 127, -3, 125, 77, 124, 71, 98,
   -12, -49, -44, -9, -46, 34, -20, 35,
   42, -36, 0, -55, 58, -12, 33, -6,
   -49, 37, 13, 2, 5, 20, -59, 85,
   -81, 92, 47, 127, 30, -59, -31, -66,
   -3, -124, -112, -7, -23, -94, 126, 74,
   9, -120, 72, 47, 24, 67, -68, -6,
   19, 127, -76, 52, -17, -11, -116, -113,
   -73, -35, 14, 75, -32, 17, 20, 117,
   -9, 127, 113, 69, -6, -39, -16, 24,
   91, -54, -37, 100, 88, 25, -39, -50,
   73, -90, 67, 88, -39, -58, 118, -17,
   45, -71, -80, -35, 120, -20, -59, -45,
   -11, -109, 74, -15, -17, 99, 43, 123,
   1, 13, 43, 19, -15, -1, -109, -46,
   -13, -2, -53, 40, -37, -120, 31, -124,
   121, 4, 96, 53, -84, 20, 19, -127,
   -6, -27, 58, 60, 9, 46, 127, -8,
   -26, 56, -3, 12, -39, 66, 99, -128,
   -53, -6, -20, -36, 31, -106, -21, -24,
   -64, -1, -78, -37, -20, 10, -38, 22,
   -31, 16, -43, -59, -51, -3, -20, 4,
   123, 127, -127, -127, 97, -53, -6, -80,
   -128, 73, -37, -12, -14, -126, -18, 21,
   122, -8, 8, -125, -73, -128, -101, -22,
   -26, 61, -126, 9, -21, -54, 32, -120,
   17, -93, -76, 17, -74, 59, -45, -49,
   -40, 14, -127, -59, 53, -16, -79, -32,
   6, -22, 40, -37, 93, 90, 0, 6,
   92, -3, -10, -25, 33, 52, 10, 45,
   39, -5, 97, 66, -43, 50, 108, -45,
   25, 112, -127, 11, 127, 4, 72, -24,
   -21, 127, -12, -82, 52, -88, -2, -56,
   -33, -34, 28, -19, 113, -31, -125, 3,
   -82, -12, -28, -98, -90, 26, 126, -98,
   -46, -74, -89, -103, 73, 99, 41, -38,
   -67, 53, -128, 72, -60, -69, -29, -7,
   -72, -116, 15, 44, -14, 27, -65, 15,
   -63, 74, 41, -82, 16, 110, -96, 95,
   -15, -57, 51, 29, -29, 0, -52, 103,
   77, -49, -74, 82, -21, -47, 123, -126,
   -57, -103, -114, 124, 4, -51, 59, -51,
   108, 51, 55, 10, 36, -27, -72, -88,
   127, 127, -51, -40, -80, -126, 94, 21,
   4, -35, 104, 111, -31, 61, 29, -4,
   -95, 122, -125, 79, -10, 61, -20, -20,
   -65, -82, 43, 45, -31, -34, -48, -16,
   36, 37, -18, -25, -15, 51, -53, 4,
   23, 61, -21, -80, 57, -81, -52, -34,
   127, 35, -7, 109, -66, -34, 102, 28,
   127, 43, -20, 110, 39, -53, 86, -42,
   111, -7, -88, -42, -125, 53, 91, -12,
   -51, -126, -40, -46, 23, 97, -125, -123,
   48, -7, 50, -41, 23, 118, 52, -1,
   127, 102, -85, -14, 125, 68, -118, -72,
   -127, -103, 46, -78, -118, 48, -125, 84,
   -120, 82, -100, -128, 47, 36, -73, 13,
   -125, -11, 70, -18, 48, -40, -32, 43,
   4, 37, 125, -16, 19, -43, -79, 46,
   -39, -4, 13, -46, -71, -15, -127, 12,
   4, -21, 10, 125, -80, 31, -67, 123,
   -30, 46, 36, 20, 31, -49, 37, 29,
   -8, -50, -43, -104, 2, -66, -33, 39,
   32, -81, -2, 27, -11, 13, -82, 7,
   39, 48, -17, -23, 5, 24, 16, 26,
   44, -4, 8, -32, 58, 1, -60, 10,
   65, -4, -66, -9, -40, 47, 0, -28,
   -125, -126, 11, -93, 37, 45, -115, 34,
   -75, -22, 14, -51, 64, -4, -84, 25,
   -116, 117, -126, -124, 9, 127, -69, 45,
   -67, -118, 2, -21, 87, -127, -6, 62,
   -116, -54, -57, -29, 100, 88, -34, -27,
   -6, -8, -120, 72, 13, 9, -126, 34,
   -114, 15, 39, -15, -99, -80, -93, 76,
   -62, 103, -106, -111, -6, -37, -101, 35,
   -82, 67, 13, 71, -4, -47, -52, 44,
   -120, 85, 49, 38, 23, 105, -29, -120,
   7, -127, -7, 125, 33, -123, -52, -7,
   -17, -117, 110, 31, 14, -67, -52, -100,
   -46, -86, -61, -17, -4, 76, 64, -68,
   96, 64, 78, -4, -47, -9, 112, -26,
   -30, 54, -79, 22, -80, 66, 126, 96,
   82, -15, -37, 127, 100, 15, 119, -30,
   80, -126, -40, 67, -71, 108, 48, -27,
   82, -36, 22, -5, 55, -25, 29, -23,
   127, -11, -33, 127, 48, 90, 127, 67,
   127, 86, -64, 123, 23, -120, 97, 2,
   127, -23, 27, -90, 10, -34, 70, -31,
   87, 11, -15, -20, 12, -125, -124, 123,
   -78, -76, -126, 121, 7, -50, 95, 35,
   -127, 124, 2, 30, -4, -127, -13, 87,
   -107, -6, -34, -78, 62, -92, 31, 77,
   -44, 19, -20, -122, -27, -6, -87, 61,
   -9, -7, 22, 9, 43, -18, -73, 67,
   -124, -68, -12, 67, 46, 117, -127, -14,
   -16, -127, 0, -107, -8, 36, -57, -9,
   -107, -93, -92, 53, -25, 127, 35, 127,
   -14, 52, 77, -55, 58, -108, -51, 45,
   -17, 37, 2, -65, 121, 21, 14, 5,
   4, -115, 120, 125, -58, 68, 7, 127,
   62, 47, 18, 43, 17, -42, 18, 0,
   -5, 7, 17, 0, -75, 55, 42, -42,
   23, 28, -6, 49, 12, 47, 64, 5,
   43, 82, 64, -79, 36, 10, -30, 127,
   -99, 55, 74, 91, -83, -57, 70, 20,
   -51, 108, -7, -32, 29, -81, 82, -128,
   83, 73, 65, -46, -40, -29, 17, 5,
   -30, 42, -121, 33, -44, 11, 116, -55,
   50, 64, 16, -2, 51, -70, 33, -126,
   -85, -55, 4, -17, 12, -1, -55, -26,
   -63, 14, 23, 48, -6, -64, -11, 27,
   -16, -2, -37, -7, -86, -46, -49, 37,
   28, 59, -62, 22, 19, 17, 121, -105,
   -17, -30, -79, -105, 93, 33, 126, -43,
   -36, -27, -37, -92, 48, -128, -90, -127,
   -115, -74, -69, -34, 8, 64, -70, -63,
   -28, -11, 6, 99, -98, 5, 46, 49,
   9, 3, 1, -82, -13, -127, 37, 14,
   -30, -21, -12, -51, -49, 32, -41, 75,
   40, 80, -46, -73, 26, -6, -2, 49,
   -25, 39, 69, -55, -9, 39, 49, -58,
   -16, 127, -66, -1, -87, 46, -29, -26,
   -63, 24, 13, -64, -66, -111, -70, -15,
   10, 79, -43, -101, -2, -62, -119, 72,
   -128, -128, 20, -29, 62, 57, -122, -126,
   86, -28, -127, -114, 3, -94, -128, 2,
   93, -110, 48, 12, 10, 82, -103, 25,
   -51, -44, 82, -7, -40, 22, 73, 75,
   3, -20, 58, -127, -55, -11, -128, -82,
   -27, -57, -5, 7, 10, -43, 120, -19,
   -22, 13, 70, -35, -103, -2, -35, 15,
   -74, -65, -37, 5, -62, 60, -128, -24,
   -27, -29, -65, 83, -83, 127, -125, 115,
   18, 84, 122, -44, 60, -15, -1, 4,
   -123, -123, -26, 1, -89, -5, -80, 20,
   44, 8, -20, 31, -78, 103, -55, -39,
   -37, -26, 45, -13, 43, 0, 34, 42,
   -32, -10, -34, 10, 54, 6, -100, -18,
   -47, -33, 46, -25, -27, -12, -27, 15,
   109, -43, -36, 13, -76, -63, -59, -122,
   127, 127, -61, -14, 49, 67, -16, -125,
   5, -17, -65, 84, 81, -128, -127, -63,
   -25, 11, -27, -94, -13, -124, -5, 75,
   -29, -84, -29, -104, 44, 33, -62, 40,
   -106, 7, -100, 30, -71, -128, 80, 63,
   -44, -64, 47, -78, -12, 38, -55, 110,
   9, 61, 30, -76, 16, 15, -26, -26,
   -124, 88, 61, 0, -58, 33, -8, 65,
   -126, 39, -55, 43, 114, -15, 45, 43,
   -113, -128, -109, 60, 76, 81, 99, 93,
   112, 29, 3, -63, 71, -22, -32, -83,
   -125, -78, 18, 46, 103, 56, -100, -49,
   -37, -20, 33, 65, -128, 5, 56, 49,
   52, 127, -8, -50, 71, -62, -8, -52,
   -114, -60, 9, -102, -105, -2, -32, 37,
   -69, 79, 32, -95, 42, 100, -30, -1,
   -91, 31, 70, -24, -33, -53, -61, 45,
   -74, -122, -124, -81, 12, 13, -51, -118,
   10, -125, 92, 76, 63, 57, -37, -124,
   89, -114, -127, -40, -98, -91, -108, 56,
   69, -127, -122, 54, -56, 47, -61, 117,
   -1, -38, -47, 38, -3, 127, -11, -43,
   -31, 16, -16, -13, 30, 2, 53, 66,
   -64, -6, 64, -49, -22, 4, 0, 40,
   -45, 69, -89, -63, 60, 88, -101, 53,
   -54, 87, 110, 71, -72, 10, -29, 6
};

static const rnn_weight vad_gru_recurrent_weights[1728] = {
   -111, 64, -6, 5, 37, 9, -89, -68,
   22, -3, -40, -112, -95, 7, -26, -53,
   -22, 23, -60, -9, -46, -10, 32, 37,
   -50, 35, 9, -53, 15, -6, -22, -20,
   9, 27, -9, 19, -32, -14, -13, 9,
   -50, -9, 19, 73, -59, -38, -9, 34,
   127, -81, -24, -23, 84, -50, 16, -74,
   80, -128, 48, 72, 29, -128, 107, -7,
   127, -91, -20, 8, 21, 32, -14, -16,
   -126, -128, -34, -18, 91, 46, -128, -127,
   -105, -128, -48, -127, -20, 112, -98, -31,
   -79, -127, -64, -12, -114, 13, 70, 97,
   1, -45, 14, -61, 26, 6, -19, 61,
   25, 6, 28, -62, -7, 14, -5, -11,
   -8, -110, 81, -59, 100, 56, -12, -45,
   127, 127, -49, 46, 98, -5, 127, -127,
   98, -128, -22, 127, -103, -50, 126, -73,
   127, -88, -33, -34, -79, 74, 122, -44,
   48, -79, 35, -126, -116, -119, -83, -126,
   -74, 20, 23, 127, 78, -103, -57, 93,
   -37, 60, 96, 127, 125, 9, -85, 114,
   16, -50, -36, 85, 69, 2, 20, -102,
   66, -103, -34, 68, -39, 57, 123, 0,
   20, -41, -28, -67, -47, -29, 83, -34,
   -127, -128, 60, -9, -48, -47, -97, 95,
   -60, 126, -61, 23, 89, 21, 117, -124,
   -112, 82, 121, 124, -77, 91, -87, -29,
   -128, -69, -20, -41, -19, -18, -127, -117,
   -26, -127, 1, -69, 11, 17, 80, 127,
   -124, -119, -122, -92, -41, 111, -2, 1,
   6, -83, -53, -16, -11, 103, 33, -74,
   -76, -48, 58, -31, -58, 0, -37, -21,
   76, -127, -64, -3, -71, 61, 17, 108,
   127, 127, -14, 83, 121, -3, 127, -76,
   125, -127, 18, 119, -90, -120, 0, -67,
   126, -110, 7, 55, -26, 85, 126, -55,
   66, -59, 19, 6, 26, -14, 29, -116,
   36, 66, -11, -48, -110, -68, -89, -62,
   -39, -80, -39, -74, -74, -5, 16, -65,
   114, 37, -51, 53, 59, -87, -66, 6,
   -24, -15, -58, -27, -48, 67, -48, -50,
   22, -75, 4, -108, -14, -25, -45, -14,
   -18, 52, 25, -34, 37, -18, -41, 15,
   13, -21, -120, 92, 15, 15, 21, 41,
   52, -72, 83, 81, -3, -69, -2, -29,
   127, 127, 27, -88, 123, -73, 78, 76,
   76, 127, 127, 16, 109, -102, -122, -77,
   126, 43, 24, 32, 41, -70, -127, -55,
   122, 81, 30, 111, 2, -67, 127, 105,
   -116, -25, 60, -25, -65, -36, -56, 39,
   41, 92, -32, 98, -87, 48, 69, 107,
   111, 16, -64, 48, 64, 126, 53, -123,
   53, -111, 117, 26, -76, -128, 19, 67,
   119, -110, -107, -41, 79, -50, -19, -14,
   -47, 57, -21, 54, 109, 35, 28, -33,
   12, 20, 49, -14, -11, -77, -23, -73,
   -11, -32, 17, -79, -49, -17, 124, 43,
   117, 17, -14, 63, 37, 22, -41, 21,
   -42, -7, -1, -54, -44, -13, -89, -26,
   -26, -76, -22, 33, -98, 6, 84, -6,
   127, 82, -29, 21, 120, 61, 72, -91,
   56, -128, 95, 127, -88, 16, 60, -29,
   127, -80, 26, 34, -68, 23, -10, 58,
   36, -80, -126, -83, -125, -57, 54, 124,
   4, -58, -31, 124, -34, 53, -17, 16,
   -19, -47, 32, -21, 41, 3, -47, 41,
   -47, -89, -13, -38, -88, 7, -19, -9,
   18, -92, -26, 36, 18, 38, -34, 29,
   -88, -13, 50, 103, 38, -18, -44, 61,
   -128, 12, 125, -79, -105, -49, -125, 125,
   -124, 127, 9, -104, 76, 29, -99, -24,
   -127, 43, 51, 11, -28, -36, -45, -57,
   -24, 87, 7, -119, 100, -13, -90, -123,
   3, 11, -42, -124, -15, 6, -24, -98,
   -121, -20, -46, -108, 21, -36, 22, 57,
   9, 11, -45, -71, 13, -24, -16, 13,
   -26, -9, -79, 25, -50, -18, -46, -65,
   59, -102, -25, 5, -88, -30, 48, 74,
   116, 126, -62, 34, 6, 32, 73, -63,
   67, -12, 34, 78, -37, 32, -13, 65,
   97, -40, -19, -8, -12, -3, 127, 67,
   102, 24, 60, -32, -72, 62, 118, -21,
   92, 120, 50, 96, 95, 43, 39, 9,
   -74, 83, 50, 68, 52, 3, 8, -23,
   98, 2, -11, 30, -49, 4, 4, 2,
   72, -27, -33, 43, 4, -23, -17, -15,
   -13, -77, -69, -54, -75, -6, -3, 87,
   -53, -17, 127, -50, 47, -11, 41, 52,
   -48, 79, 9, 12, -12, 2, -16, 59,
   -36, 10, 21, 25, 36, 87, 21, 39,
   6, 73, 63, -114, 87, 60, -127, -126,
   -124, -16, 55, -114, 9, 50, 64, -9,
   -79, -128, 63, -61, -8, 45, -4, 12,
   54, 122, 40, 100, 56, 43, 42, 95,
   -60, 35, -12, -5, 9, -108, -67, 66,
   127, -127, 113, 37, -64, -12, 3, -2,
   127, 95, -36, 127, 126, 52, 82, -96,
   126, -125, 96, 106, -128, -38, 123, -67,
   125, -115, -78, -35, 6, -28, 30, -6,
   -126, 11, 116, -8, 103, -1, -24, -125,
   13, -34, -48, -91, -128, -34, -3, 5,
   -125, 30, -127, -8, -5, 124, 30, 29,
   -42, 4, 4, -43, 20, -78, -2, -3,
   -10, -17, -15, -76, -31, -19, 86, 7,
   -3, -110, -59, -118, -114, -115, 5, -40,
   81, -8, 53, 63, 127, -63, 127, -127,
   16, 52, -35, 17, 6, 1, -38, -10,
   127, 10, 82, 78, -10, 56, 111, -64,
   117, 26, -62, 42, -85, -5, 58, 118,
   55, -47, 47, 112, -10, 76, -77, 82,
   102, 38, 127, 18, 67, -57, 69, 70,
   -27, 40, -6, -14, 9, -46, 16, 28,
   50, 24, 1, 27, -16, 6, -44, 27,
   -9, -41, -21, 45, 3, 45, -41, -67,
   -126, -20, 47, -12, -31, -63, -9, -48,
   -61, 70, -56, -71, 27, -64, 2, 27,
   -127, 124, -53, 29, -8, 123, -43, -47,
   125, 126, -28, -11, 64, -9, 126, -25,
   127, 127, 127, 89, 88, -109, 11, -3,
   127, 110, -54, 36, -128, -48, 23, 25,
   108, 15, -122, -51, -76, -50, -50, -8,
   -32, -37, -20, -15, 0, -42, -26, -16,
   -65, 16, 24, -63, -54, -43, -107, -14,
   13, 120, -32, 96, 84, 127, 60, -61,
   19, 28, 61, 44, -90, 49, 11, 37,
   35, -35, -87, -34, 65, 127, 95, -32,
   -118, -107, 125, -123, -93, -2, -122, -125,
   -6, -121, -40, -82, -28, 124, 118, 127,
   -128, -104, -125, 95, 127, 127, 115, 88,
   -70, 98, 5, 88, -2, 127, 53, -56,
   -40, -10, 56, 23, 68, 26, 41, -11,
   3, 21, 79, 10, -4, 70, 61, 126,
   -127, -25, 16, 68, -80, -94, -17, 127,
   -42, 111, -60, 112, 70, -17, 126, 5,
   -128, 36, 115, -3, -99, -34, -94, 14,
   90, 37, -126, 49, 103, -70, 3, 16,
   -106, 44, -28, -69, -82, 9, 127, 27,
   73, -96, -68, -127, -58, -128, -41, -90,
   -30, 78, -80, -78, -13, -81, -77, -35,
   -35, -31, 1, 67, -85, 38, 75, -47,
   90, -96, -46, -16, -53, 0, -34, -13,
   127, 46, -56, 90, -19, -2, 80, 51,
   28, -61, 69, -30, 17, 95, -27, 10,
   31, -57, -94, 36, 10, -51, 111, 75,
   -23, 33, 75, 67, 119, 15, 51, 2,
   -20, -16, 8, 28, -46, -20, -50, -51,
   -15, 34, 3, 48, 2, -1, 30, -67,
   4, -78, 15, -50, 68, -79, -23, 28,
   -20, 32, 4, -49, 6, 46, 52, -21,
   9, -8, 56, -14, 28, 11, 35, -14,
   -49, -66, 50, -72, -30, -19, -87, -4,
   7, 50, -33, -53, -111, 14, 33, 58,
   7, -47, -10, -36, -69, -42, 5, -59,
   126, 114, 46, 126, -41, -61, 88, 122,
   71, 126, -6, 123, 37, 9, 20, 10,
   13, 117, 63, 126, 44, -74, -40, 10,
   84, 59, -26, 69, -18, -27, 36, 0,
   18, -13, 4, 60, -25, 17, -20, 29,
   -41, 34, -11, 49, -100, -39, -1, 61,
   -127, -68, 7, -127, -127, 20, -21, 126,
   -57, 127, -99, -82, 33, 47, 54, -38,
   -128, 24, -17, -81, -39, -87, -120, -4,
   35, -32, -123, -63, -126, -31, 111, -74,
   90, 78, 28, 46, 127, -53, -104, -7,
   -18, -20, 10, 19, 119, -3, -54, 13,
   -36, -116, -108, 48, -41, 75, 46, 13,
   127, -60, -93, 32, 23, 103, -5, 23,
   -39, 25, -20, -9, -39, 52, -7, 115,
   -128, -79, 123, -51, -53, 30, -40, 45,
   -116, 127, -34, -127, 126, 51, 48, -12,
   -128, 127, 86, 59, -59, 41, -35, 11,
   117, 16, -96, 87, -126, -17, 124, 33,
   85, 106, -49, 80, 34, 98, -78, -33,
   50, 66, 108, -99, -3, -125, -42, 56,
   -56, -125, -44, -21, 69, -23, 57, 126,
   113, -13, -23, -35, 23, 102, 70, 0,
   3, -72, 37, -61, 32, -57, -124, 76,
   -128, -128, 124, -127, -90, -103, -127, 55,
   -125, 124, -7, -79, 119, 24, -72, 29,
   -96, 127, 87, 41, -26, 65, -43, 7,
   127, -12, 15, 117, 102, -3, 64, 111,
   22, 47, -11, 114, -100, -112, 43, -127,
   127, 112, 25, -30, -116, -97, -14, -122,
   89, 12, -41, -64, 99, -67, -122, -69,
   -20, 53, -58, 72, -82, -90, 7, -23,
   108, 21, 49, -126, -49, -119, -98, 49,
   38, 127, -121, 71, 66, 75, 84, -57,
   127, -126, 26, 29, -50, -57, -2, 21,
   -5, -86, -83, 19, 127, 38, 15, -75,
   127, 76, -111, 52, -8, -124, 119, 84,
   13, -39, -122, 40, -117, -117, -120, -127,
   127, 124, 10, -128, -78, 28, -113, -77,
   -45, -126, -100, -101, 55, -86, -13, -106,
   18, -60, -127, -3, -126, 112, -9, 18,
   -50, -92, -126, -36, 42, -11, -124, 33,
   -126, -114, 3, -118, -114, -79, -127, 122,
   -120, 101, -108, -105, 68, 112, -126, 20,
   -127, 75, 70, 127, -6, 39, -83, -59,
   -73, 85, -107, -30, 117, 35, -6, 66,
   -60, 85, 30, -104, -70, -79, 38, -126,
   -59, -100, 12, -94, -113, -97, -97, -15,
   74, -55, 3, 65, 94, -35, 37, 26,
   -8, -34, -14, -20, 10, -21, -93, -35,
   12, -123, 6, -29, -63, 12, -35, 47,
   127, 16, 14, 24, 117, 127, 122, -126,
   50, -128, 70, 72, -67, -17, 3, 43,
   127, -85, -126, 47, 53, 34, 84, -77,
   -41, 6, 6, 32, 21, -23, -16, -93,
   -13, -102, 114, -12, 114, -37, 21, 21,
   -126, -74, 5, 127, 38, 127, -127, 126,
   107, 127, 6, 118, 46, 19, 55, -84,
   33, -33, 15, -63, 61, -121, 31, -54,
   81, -81, -101, -4, -63, -47, 82, 70,
   123, 125, -14, 123, 36, 60, 127, -128,
   94, -45, 127, 94, -128, 47, 126, -97,
   97, -28, -97, -127, 112, -75, 72, 51
};

static const rnn_weight vad_gru_bias[72] = {
   -128, -128, 106, -108, -128, -56, -127, -124,
   -123, -127, -78, -116, -17, 118, 71, 127,
   -128, -128, -101, 127, 54, 127, -33, 116,
   -85, -30, 123, 85, -39, 69, 19, -25,
   -28, 18, 32, -4, 41, 20, 36, 49,
   -20, 109, 95, 124, 56, 80, 90, 5,
   -109, -28, 5, -35, -75, -41, -44, 58,
   -24, 14, -21, -20, -1, -28, 36, 2,
   -59, 22, 4, -17, -23, -51, -64, 68
};

static const GRULayer vad_gru = {
   vad_gru_bias,
   vad_gru_weights,
   vad_gru_recurrent_weights,
   24, 24, ACTIVATION_TANH
};

static const rnn_weight vad_output_weights[24] = {
   -128, -128, 127, -128, -128, -128, -128, 127,
   -128, 127, -128, -128, 127, 127, -128, 127,
   -128, 127, 127, 127, -128, 35, -128, 127
};

static const rnn_weight vad_output_bias[1] = {
   104
};

static const DenseLayer vad_output = {
   vad_output_bias,
   vad_output_weights,
   24, 1, ACTIVATION_SIGMOID
};

const struct RNNModel model_lq = {
    24,
    &input_dense,
    24,
    &vad_gru,
    1,
    &vad_output,
};
