/*
 * SUITE: marathon-prescription-2018-08-29
 *
 * INTENT:
 *
 * General use in a noisy recording environment.
 *
 *
 * SIGNAL:
 *
 * voice
 *     hamlet-002-act-1-scene-1.1626
 *         http://etc.usf.edu/lit2go/94/hamlet/1626/
 *     human_rights_un_chi_nf.mp3
 *         https://librivox.org/universal-declaration-of-human-rights-by-united-nations-volume-02/
 *     human_rights_un_cze_msed.mp3
 *         https://librivox.org/universal-declaration-of-human-rights-by-united-nations-volume-02/
 *     huntingofthesnark_01_carrol_128kb
 *         https://librivox.org/the-hunting-of-the-snark-by-lewis-carroll-3/
 *     teacupclub_01_armstrong_128kb
 *         https://librivox.org/the-teacup-club-by-eliza-armstrong/
 *     warletters_01_allan_128kb.mp3
 *         https://librivox.org/war-letters-from-a-young-queenslander-by-robert-marshall-allen/
 *     TSPspeech
 *         http://www-mmsp.ece.mcgill.ca/Documents/Data/
 *
 * sounds
 *     cough
 *         https://freesound.org/ sounds: 205012 222644 252240 323532 342587 343880 343885 343986 369295 391284 401334 407839 419781 425777 87412
 *     laugh
 *         https://freesound.org/ sounds: 167578 189278 263775 319346 343934 344043 344064 367680 381275 383237 393353 401214 433921 73123
 *
 * music
 *     Danse Macabre
 *     Gymnopedie No 1
 *     Local Forecast
 *     Secret of Tiki Island
 *     Unpromised
 *         https://incompetech.com/music/royalty-free/
 *
 *
 * ./chopper voice/hamlet-002-act-1-scene-1.1626.raw voice/human_rights_un_chi_nf.raw sounds/cough.raw voice/human_rights_un_cze_msed.raw voice/huntingofthesnark_01_carrol_128kb.raw sounds/laugh.raw voice/teacupclub_01_armstrong_128kb.raw voice/warletters_01_allan_128kb.raw voice/TSPspeech.raw sounds/cough.raw music/Danse\ Macabre.raw music/Gymnopedie\ No\ 1.raw music/Local\ Forecast.raw sounds/laugh.raw music/Secret\ of\ Tiki\ Island.raw music/Unpromised.raw
 *
 *
 * NOISE:
 *
 * rnnoise_contributions
 *     https://people.xiph.org/~jm/demo/rnnoise/rnnoise_contributions.tar.gz
 *
 *
 * ./noise-chopper *.raw
 *
 *
 * COUNT: 10000000 (x87)
 *
 * NOTE: All files processed into correct raws through ffmpeg: ffmpeg -i in -f s16le -ac 1 -ar 48000 out.raw
 */

/*This file is automatically generated from a Keras model*/

#ifdef HAVE_CONFIG_H
#include "config.h"
#endif

#include "rnn.h"
#include "rnn_data.h"

static const rnn_weight input_dense_weights[1008] = {
   15, 4, -1, 3, -7, 4, 1, 18,
   25, 21, 3, 8, -62, -1, -10, 7,
   -5, -5, -2, -15, 2, -9, 5, 7,
   29, 19, 31, 9, -18, -25, 27, -30,
   20, -19, 50, -20, -16, -23, -30, -24,
   -2, 16, -3, -21, 10, 7, 35, -3,
   16, 50, -9, -29, -16, -25, -32, -22,
   -16, -18, 49, -25, -45, 24, -21, -25,
   -30, 4, -6, -45, 29, 19, 43, 24,
   36, 38, -32, 16, -18, -21, 0, 46,
   36, 62, -9, -4, -28, -42, 28, -11,
   -20, -34, 12, -11, 7, 27, -66, 30,
   -75, 4, -7, -13, 12, 11, 18, -12,
   20, -43, 55, 7, 11, 23, -21, 19,
   29, -59, -2, -5, -35, 63, -83, -1,
   -21, -11, 63, 15, -6, 23, -32, 17,
   2, 37, -4, -26, 40, -56, -21, -47,
   -45, -6, -6, -18, -60, 23, -48, -50,
   -13, -41, -101, -71, 9, 79, -121, 110,
   72, -44, -125, -28, 32, 18, 45, -77,
   -30, -114, -93, -104, -74, 107, -55, -29,
   -128, 34, -13, -51, 17, -7, 121, 126,
   55, 11, -85, 126, 127, -128, 127, -19,
   40, -80, 46, 22, 61, 52, 96, 96,
   -67, -37, -24, -112, 6, 46, 10, -67,
   -62, 63, -35, 67, -23, 64, 44, 3,
   48, -128, -11, 0, -7, 121, -126, -51,
   -25, -34, -15, 27, -29, 35, -77, -47,
   45, -20, -106, -1, 19, -126, 13, -17,
   -11, -127, 56, 5, -62, 42, -127, -75,
   -71, -15, -116, -103, -24, -9, 83, -70,
   -128, -38, -31, 105, 36, 28, -7, -37,
   40, -81, -19, -32, -44, 85, -62, 13,
   -10, -32, 90, -57, 102, -77, 30, 62,
   -45, -36, -21, -1, 55, -128, 116, 90,
   8, 11, 72, 36, 9, -127, 43, -116,
   -95, 0, 48, -124, -124, -8, -59, 21,
   -4, -35, 74, 5, -96, -10, -123, 8,
   42, 29, 123, -124, -125, 40, -18, 19,
   3, -2, 63, 91, -104, 69, -10, 114,
   38, 9, 62, -40, 50, -80, -77, -8,
   122, 127, 38, -87, -96, 123, 50, 91,
   5, 6, 127, -128, -46, -3, -43, 29,
   -124, 71, 16, 70, 32, -63, 52, 88,
   22, 40, 58, 16, -120, 74, -94, 71,
   125, 126, 6, -47, -76, -96, 79, -11,
   -38, 100, 26, 98, -36, -127, 10, 62,
   3, -101, -31, -121, -98, 66, -5, 127,
   26, 68, 76, -70, -100, -25, 76, -37,
   41, 94, -94, 92, -79, 97, -51, -93,
   113, -74, -64, -111, -8, 124, 127, 125,
   -53, 40, 96, 120, 27, 87, -36, 126,
   127, -44, -42, -128, -15, 33, -81, -3,
   -109, -115, 72, -117, -125, 127, 18, 126,
   -60, 12, 99, -19, -20, 24, -53, -21,
   6, 57, -111, -69, -30, -22, -100, -23,
   21, 27, -44, -126, -122, 74, -60, 58,
   73, -24, -57, -20, 6, 18, -65, -50,
   113, 121, -26, 50, 72, 62, 94, -33,
   52, -128, -116, -36, -38, 28, 9, 85,
   -50, 92, -2, 14, -84, 9, 124, 3,
   -21, -26, 120, -77, -1, 0, -46, -47,
   79, 82, 41, -7, 111, 93, -46, -125,
   -51, 104, 123, -10, -27, -16, 47, 37,
   -19, -20, 42, 127, 49, -29, 26, -32,
   59, 40, -26, -17, 95, -72, -47, 100,
   25, 127, -103, 57, -55, 125, 86, 112,
   127, -82, 113, 19, -11, -112, 65, 127,
   -58, -75, -11, 65, -128, 50, 27, -95,
   93, 119, -125, -106, 83, 97, 93, 27,
   97, 121, 12, 8, 52, -3, -123, -84,
   21, 77, -15, -37, 115, -72, 127, -40,
   33, 120, -112, 38, 30, -60, 102, 124,
   -113, -127, 110, -36, -72, -54, -127, -128,
   -126, -76, 42, 42, 17, 55, 15, -2,
   92, 27, -48, -21, 71, 67, -99, -40,
   49, 77, -95, 36, 19, 21, -54, 103,
   -37, -113, -14, 7, -23, -3, -123, 63,
   123, -53, -28, 18, 16, -115, 115, -122,
   -97, 33, 90, 52, -28, 1, -41, -87,
   -78, -70, -22, 11, 34, 35, 50, 53,
   127, 10, 120, -31, 102, 81, -126, 66,
   -103, -40, -76, -10, -10, 9, 21, 65,
   -29, 63, -48, -88, -93, 97, 42, -17,
   -14, 20, 100, 98, 51, 72, 95, 44,
   46, -51, 50, 49, -10, -83, -75, -100,
   45, -67, 26, 127, 79, -33, -50, -127,
   -92, -12, 13, -57, -76, 62, 79, -124,
   19, 55, 34, -34, -90, -20, -46, -1,
   -7, 45, -8, 85, -84, 81, 83, -90,
   -128, 44, 127, 54, 71, -84, 66, 11,
   -45, 25, -17, -5, -24, -79, -2, -120,
   35, -20, 27, 17, 30, 71, -21, 5,
   69, 114, -26, 52, -5, 12, -12, 110,
   123, -20, -57, 11, -20, 29, 34, -92,
   14, -5, -89, -30, -27, 104, 80, 101,
   11, 58, -3, -52, 43, 52, -8, 114,
   -90, -69, 14, 32, 41, -6, 7, 12,
   26, -126, -20, 12, -35, 97, -101, -123,
   -22, 0, -80, 0, -32, -31, 12, -64,
   -2, -28, -10, 7, 94, -18, -44, -7,
   -18, 23, -31, 100, -7, -29, -69, -69,
   125, 127, 121, 25, -125, -21, 124, 127,
   63, -128, 99, -58, 40, -101, -46, 99,
   -126, -12, 127, 123, -126, 44, 98, -69,
   91, 123, 56, 40, -127, 94, 107, 127,
   63, -95, 121, 119, -60, 83, 35, 52,
   -121, -28, 127, 127, -121, 120, 1, -40,
   -106, -111, -109, 29, -3, 14, -63, 62,
   -49, 37, 69, 63, -72, -33, 14, 27,
   76, -121, -83, 125, 20, -2, -117, 74,
   85, -54, -42, 47, 3, 27, 32, 70,
   -56, -15, 95, -81, -46, -38, -61, 66,
   -36, 45, -76, 88, 52, -14, 9, 82,
   120, 14, -17, -11, -121, -126, -24, 48,
   -22, 32, 13, 17, -67, 59, -121, -52,
   3, 77, -88, -25, 124, -113, 46, 86,
   78, -97, -118, 11, 107, 12, 22, 8,
   63, 43, -14, -109, 24, 15, -21, 80,
   4, -75, -76, -18, -5, -103, -19, -95,
   -13, -34, -23, 31, -41, 51, -39, 1,
   -26, 34, -36, 36, 75, 10, 56, -22,
   16, 18, 33, -2, 11, 50, 2, -1,
   62, -19, 62, 28, -38, 92, -40, 13,
   3, 8, -24, -5, -51, 16, -37, -13,
   42, 14, 34, 50, -26, 11, -20, 126
};

static const rnn_weight input_dense_bias[24] = {
   -69, -7, -38, 74, 127, -1, 19, -5,
   -39, 4, 27, -127, 115, -126, 125, 3,
   -29, 120, 10, 94, 74, -35, -16, 3
};

static const DenseLayer input_dense = {
   input_dense_bias,
   input_dense_weights,
   42, 24, ACTIVATION_TANH
};

static const rnn_weight vad_gru_weights[1728] = {
   25, -122, 41, -91, 6, -9, 2, 72,
   -100, -46, -102, -101, 31, 54, -48, -47,
   -80, -107, -5, -31, -121, -5, -26, -38,
   -16, -11, 36, -40, -19, 89, -25, 105,
   -5, -107, -3, -9, 40, 28, 2, 15,
   -54, -105, 2, 24, -83, -86, -6, 59,
   1, -63, -2, -28, 36, -47, 21, 29,
   -28, 4, -14, 36, 25, -30, -27, 6,
   -50, 33, -4, -50, 3, -69, 58, 4,
   -19, -69, -45, 2, -41, 110, 48, -42,
   -12, -100, 15, 127, 61, 64, 65, 51,
   -74, 24, 4, -8, -61, -127, 14, -126,
   -113, -81, -81, 31, -18, -11, 110, -5,
   37, -126, -90, -44, 26, -57, -45, 127,
   -22, 36, 0, -103, 5, 24, 62, -117,
   -18, -126, 99, 127, 34, -44, 77, 62,
   -42, 12, -101, -103, 103, -59, 66, -40,
   9, 127, 10, -1, -13, 74, 106, 117,
   104, 126, 17, -127, 88, -126, 55, -127,
   -125, 44, 119, -9, -68, -122, 115, 108,
   123, -79, 19, 18, -32, -86, 13, 31,
   68, -3, 11, -16, 27, -61, -34, -69,
   -44, -93, -43, -26, -128, -86, 59, -10,
   96, -36, 10, 68, -9, 48, 66, 85,
   69, -5, 28, -13, 39, 30, 58, 24,
   49, -9, -65, -42, -40, -21, 32, 29,
   -24, 66, -14, -69, 10, -19, -8, 1,
   -47, -57, 5, -106, 14, -32, -77, 126,
   -41, -69, 16, -44, -43, 9, -125, -63,
   -37, -128, 50, -1, 113, 78, 67, -29,
   98, 40, -14, -12, 7, -19, -20, 43,
   -85, -33, 53, -38, -53, 45, -23, 9,
   69, -9, 69, -128, 42, 48, -3, 80,
   85, -116, 2, -13, 52, 33, 53, -18,
   -45, 63, -22, -25, 49, 32, 93, -102,
   -119, 125, 72, 8, 57, 6, 9, 3,
   -6, -98, 14, 25, 5, 117, 0, 12,
   13, -13, -119, -91, 45, 58, -58, -10,
   126, -54, 14, 95, 120, 123, 6, 40,
   4, -35, 125, 17, 23, 48, 57, 94,
   2, 120, 121, 51, 76, 29, -108, -42,
   -65, -5, 62, -20, 24, -15, -17, 87,
   3, -24, 25, 9, 8, 24, -43, -38,
   -6, -32, -48, 13, -9, -51, 5, 17,
   29, 39, -34, 5, 25, 86, -32, -54,
   -19, 79, 26, 127, -9, 52, -45, 19,
   -50, -58, -64, -45, -11, 42, 40, -72,
   -11, 85, 23, -55, -103, 28, -19, -46,
   91, 87, -54, -125, -38, -11, -19, 62,
   -4, 84, 18, 8, -16, 107, 40, 63,
   80, -35, -49, -27, 19, -59, -28, 4,
   67, -77, 55, 22, 1, -8, -22, 11,
   -74, 66, -38, -15, 22, 52, 123, -94,
   -53, -3, -32, -128, -60, -58, 2, 105,
   44, 6, -9, -37, -42, -70, -44, -1,
   -62, 29, 38, 14, 78, 122, -94, -46,
   45, -32, 52, -35, 14, 24, 37, -47,
   52, -59, 68, 21, -18, 29, -5, 40,
   -52, -18, 27, -49, -33, 30, 55, 106,
   61, 119, 74, -70, -24, -8, 112, 120,
   101, -79, 62, 96, 85, -60, 16, -11,
   -32, -53, -80, -15, -46, -56, 74, -42,
   -3, 49, -64, 7, 30, 42, 105, 53,
   -79, 34, -29, 20, 40, -59, -73, 42,
   -19, -118, -10, -10, 82, 62, 79, -84,
   1, 51, 37, -34, -46, 29, -36, 16,
   -38, 58, -83, -36, 40, 1, -23, 29,
   -6, 101, -118, -71, 36, 10, -41, 67,
   9, 44, -49, -95, -15, -12, -100, -18,
   30, 30, 28, 45, -20, -76, -22, 11,
   -64, 13, 14, -38, -13, 10, 73, 5,
   20, 20, 67, 10, 88, 17, 75, 28,
   -24, 53, 4, -31, -21, -22, -30, 74,
   -35, -93, 16, -16, -83, 127, -11, -17,
   7, 34, -12, 5, -107, 2, -4, -40,
   67, 65, -24, -71, -61, 25, -12, 70,
   7, 23, -36, 1, 6, 5, -8, 22,
   -57, -89, 72, -30, -90, -34, -7, -2,
   6, -83, 4, 53, 3, 41, -62, -25,
   26, 17, 58, -20, 21, 0, 69, -3,
   -4, -43, -12, -4, 6, 8, 14, 44,
   115, 59, 41, 124, 65, 19, 107, -43,
   -29, 41, 15, -32, 32, 94, 77, -52,
   -34, 94, 69, -18, -89, 36, -31, 8,
   -16, 14, -72, 34, 33, 58, -36, 41,
   67, 11, -17, 41, 13, 19, 21, 22,
   -75, 58, -33, 27, -107, 25, -67, -40,
   -6, -25, -22, -49, -23, -60, -32, -65,
   55, -24, -49, -43, -37, -4, 7, -44,
   -43, 10, -2, -17, -36, -25, 2, -56,
   -42, -67, 52, -128, 24, 5, 31, 68,
   -3, -88, -8, -10, 34, -29, 117, 56,
   49, -68, 91, 111, 5, 32, 14, -124,
   -56, -36, -93, -73, 60, 81, -3, 21,
   -40, -31, -96, -107, -45, -8, -1, 101,
   -31, 50, 37, -103, -25, 67, -4, 5,
   -5, -103, -14, 69, 91, -21, 26, 11,
   6, 50, -38, 32, 53, 43, 126, -88,
   -71, 50, 30, -52, 49, -80, 42, -16,
   90, 127, 99, 79, -102, -98, 24, -63,
   -33, 115, 126, 86, -46, -19, 99, -30,
   127, 123, 97, 39, -125, -126, 27, 20,
   39, 41, -46, -53, 27, -42, 13, -7,
   11, 55, -42, -93, -1, -23, 74, 36,
   86, -21, 45, -5, -119, -76, 8, -15,
   43, 6, -53, 10, -30, -19, 76, -3,
   -1, -83, -10, -38, 76, -17, -13, 20,
   -38, 75, 9, -18, 32, -81, 52, -63,
   -47, -58, -48, 17, -14, 37, 56, 87,
   5, 38, -65, 92, 34, 61, -51, 3,
   -13, -76, 10, -13, 89, 6, -60, -45,
   70, -37, 50, 48, 20, -62, 93, -33,
   70, 6, 28, -54, -19, 50, -23, 14,
   75, -39, 2, -85, 59, -5, 7, 69,
   -26, 12, 48, -10, -5, 42, -46, -4,
   62, -15, 4, 10, 27, -64, -27, 79,
   16, 35, -11, 60, -40, 37, -33, 5,
   127, -5, -35, 54, -113, 95, 44, -39,
   86, 45, 21, 88, 45, 24, 45, 83,
   90, 127, 105, 50, -121, 42, 62, 61,
   -123, 47, 34, 0, -36, 63, 119, -43,
   39, -67, -60, 127, 110, -1, -17, 22,
   21, 25, -64, 111, -78, -63, 105, -84,
   -87, 16, -61, -10, 2, -7, 9, 8,
   -27, -36, -32, 117, -15, -31, -127, 58,
   127, -55, 74, 69, -25, 10, -17, -82,
   -128, -69, -54, 75, 2, 34, -48, 40,
   46, -52, -107, 0, -83, 14, -94, -54,
   -54, 8, -66, -102, 79, 127, -127, -28,
   3, -39, -61, 25, -23, -24, 81, -80,
   40, 73, 68, -42, -25, -72, 27, 34,
   -10, -88, -85, -89, 127, 34, -49, -5,
   -40, 60, -13, 36, 3, -10, 24, -5,
   76, -62, -49, 65, 28, 42, -102, 80,
   -21, -28, -61, 60, 27, 80, 12, -19,
   -126, 69, 39, 11, -55, -80, -20, -13,
   -51, -80, -61, -6, -22, -15, -61, -26,
   -54, 100, -95, 109, 44, -30, 29, 10,
   -31, 44, -71, -127, -36, -94, 69, 77,
   -3, 116, -60, 56, 15, 68, -16, -21,
   20, -49, -69, -22, 22, -55, -6, 16,
   67, 1, -12, 5, 101, -85, 53, 37,
   -19, 93, -68, -60, 106, 51, 40, -3,
   -57, -8, -49, 14, 33, 2, -21, 45,
   -61, -59, -16, -18, -93, 34, 52, -51,
   -45, 59, -5, -53, -104, -121, -50, 57,
   -42, -66, -31, -39, -27, -36, 106, 125,
   48, -14, 37, -15, 71, -108, 47, 45,
   23, -5, -47, 43, 121, 123, 54, -118,
   9, 31, 48, 71, 72, -20, 6, -83,
   11, 39, 27, -124, -43, 15, -99, -42,
   60, -49, 75, 47, -95, 8, -55, 32,
   60, -65, -1, 45, -122, 18, -21, 29,
   -125, -126, -117, -127, 31, 118, -50, 115,
   91, 125, -125, -125, 33, 107, -38, -55,
   -103, -114, -32, -6, 125, 121, -86, 2,
   41, 44, 17, 35, 79, 17, 93, -58,
   19, -61, 126, -23, -124, -30, 41, -8,
   -77, -67, -19, 124, 124, -1, 62, 27,
   -38, 28, -41, 1, -31, 4, 27, 41,
   0, 4, -19, 82, -67, -125, -19, -32,
   56, -100, 66, 58, 1, 8, 39, 22,
   -116, -50, 59, -39, 85, -127, -128, -19,
   -113, -111, -119, 17, -77, -128, -126, -127,
   -4, -127, -120, -123, 126, -65, -37, -14,
   -11, 52, -7, 100, 79, -89, 13, -127,
   -99, -40, -93, -60, -27, -127, 76, -73,
   126, 42, -128, 125, 55, 85, -42, -125,
   -19, -19, -19, 30, 1, -82, 51, 14,
   -13, 16, -2, 17, -91, -11, 54, -25,
   11, 74, 25, 42, -97, -22, 23, 82,
   -128, -81, 38, 126, -34, 11, -28, 94,
   29, -93, -128, 20, -19, -66, -128, -112,
   -119, 7, -13, -125, 126, 75, -110, 27,
   -16, -38, 29, -28, 82, -39, 60, 3,
   -24, 46, 23, -21, 74, 96, -11, -83,
   7, -44, -38, -34, 31, -17, 36, 5,
   66, -78, -31, -27, 5, 41, 60, 7,
   -43, -6, -7, -76, -71, 41, 11, -30,
   0, 47, -60, 0, 6, -7, 70, 51,
   106, 21, 39, -70, -85, 127, 91, 73,
   61, 102, 46, -52, -88, 125, -44, 34,
   121, 36, 69, 5, 115, 66, 6, -55,
   -23, 61, 76, 32, -11, 117, -25, -5,
   65, 78, 19, 12, -60, -20, -66, -4,
   -128, 23, -6, -13, -3, -19, -10, 115,
   31, 24, -16, -37, 76, 71, 6, -57,
   104, -97, 60, 17, -49, -99, -29, -42,
   -103, -8, -18, -36, -36, 17, -2, -40,
   59, 18, -75, -32, 39, 70, -127, 41,
   127, -65, 93, 56, 78, 69, -38, -126,
   -116, 67, -2, 15, -79, 63, 52, 106,
   -49, -125, 73, 124, 11, -71, 89, -124,
   -4, -9, 31, 10, 118, -69, -51, 35,
   54, 95, 23, 6, -52, 48, 8, -102,
   -32, 55, 18, 19, -67, -30, -46, 24,
   3, 39, 12, 53, 3, -20, -9, 9,
   71, -29, 20, 90, -17, 21, -61, -2,
   58, 126, 95, -78, -46, 17, 58, -84,
   -29, 127, 86, 4, 93, 0, 118, 86,
   -62, 62, 65, -31, -117, -75, -39, -81,
   -41, 93, -55, -128, -66, 65, -69, 38,
   23, 6, -48, -8, -65, 4, 2, -39,
   -7, 31, 31, -113, -101, 31, -19, 30,
   48, 6, 43, -6, -25, 1, -8, -22,
   -60, -9, -82, -77, -20, -78, 67, -19,
   38, 41, 10, -67, 11, -20, 30, 50,
   -57, -74, 74, 32, 126, 39, 80, -44,
   -118, 109, 65, -63, 0, -86, -64, -49,
   -128, 62, 9, -63, -118, 41, 48, 127,
   -17, 76, 4, -41, -32, 56, -49, 21,
   -25, -86, -91, -61, 11, -46, 87, 71,
   119, 55, 110, 18, -91, 72, 29, -68,
   35, 74, 41, -12, 9, 54, 75, -60,
   -14, 42, 15, 50, 14, 11, -20, -87,
   -2, -1, 41, -25, 123, -1, -37, -54
};

static const rnn_weight vad_gru_recurrent_weights[1728] = {
   66, 64, 124, 41, -73, -78, 53, 38,
   -54, 79, 106, -53, -24, 110, 65, 98,
   3, -92, -49, 11, -34, 80, 84, 76,
   -7, -49, 47, -3, -9, 10, 21, 33,
   -56, -15, 68, 29, 9, 9, 30, -8,
   35, 13, -34, 25, 34, 71, 65, 118,
   31, -127, 80, -3, 86, -45, 75, 97,
   -87, 21, 28, -38, 56, 35, 124, -82,
   -23, 122, 39, -84, 63, -24, 21, -66,
   -39, -65, -117, -22, 62, -42, -49, 57,
   10, -56, -60, 17, -8, 30, -85, -118,
   -33, 78, -10, -61, 29, -33, -121, -84,
   -23, 49, -93, -87, -21, -20, 34, -18,
   44, 24, -69, -32, -88, -66, -50, -39,
   -86, 9, -8, -47, -15, -78, -14, 1,
   55, 70, 15, -42, -7, 6, -38, 19,
   -48, -20, -35, 44, 71, -40, 59, -40,
   -46, -33, -73, 26, -14, 96, -3, 13,
   80, 77, 72, 43, -94, 65, 98, -26,
   -27, 63, 106, 52, 56, 44, 127, 112,
   43, 89, 12, 57, -33, -56, 116, -38,
   5, -73, 82, 80, -97, 42, 105, 54,
   -20, 50, 53, -15, 11, -14, -20, 7,
   -128, -23, 12, -16, 11, 87, -13, 34,
   62, -74, 46, 55, 28, -104, 8, 66,
   -48, 25, -5, -22, 42, 49, 91, 9,
   -13, -15, -70, -52, -16, 46, 28, -13,
   -23, -3, -21, -34, -109, 5, 0, -98,
   37, -109, 127, -3, -60, -110, 22, -24,
   -80, 106, -91, -114, 44, -20, -93, -6,
   -17, -63, 32, -30, -74, 83, 53, -91,
   -64, 28, 86, -8, -9, -45, -76, 11,
   94, -57, -117, -37, 3, -8, 120, 49,
   103, -43, 58, 55, 81, -126, 46, 8,
   -128, 74, -93, -34, 98, 68, 126, -56,
   -98, 59, -78, -15, -73, 64, 126, -9,
   80, -2, 126, 61, -2, 17, 118, 11,
   -124, 124, 37, 1, 48, -31, 97, 30,
   74, 1, 85, -3, 72, 28, 102, 9,
   5, 44, 127, 16, -36, 28, -22, -10,
   7, 96, 45, 69, 81, 16, -8, -54,
   -9, -15, -66, 118, 18, 8, 47, -1,
   -115, 6, -69, -124, 51, 29, -63, 24,
   -14, -43, 97, 77, -25, 63, -49, 108,
   41, -44, -14, 81, 22, -127, -53, -57,
   -42, -127, 32, 14, 62, 21, 127, -3,
   -51, -42, -32, 22, 59, 24, -19, 127,
   -22, 29, 117, 33, -45, -50, -22, -96,
   -33, 68, 48, -6, 43, 14, 8, 94,
   -10, -4, 27, 22, 15, 23, 30, -31,
   -50, -111, -5, -127, -16, -58, -36, 100,
   -23, 73, -128, -62, 18, 40, 12, -61,
   54, -47, 35, 112, -103, -91, -115, 81,
   101, 3, 126, 42, 37, -18, -69, -41,
   40, 110, 57, 14, -82, -94, 28, -105,
   -15, 34, 89, 43, -5, -121, 126, 125,
   84, 126, -105, 69, -3, -67, 27, 3,
   -27, 61, 22, 103, -22, 37, 80, -9,
   -50, -7, 13, -12, 58, -106, 1, 28,
   22, 49, -26, 1, 32, 75, 51, -27,
   78, -125, 119, 57, 5, -89, 82, 38,
   -17, 115, -88, -62, 58, 19, 127, -91,
   10, 115, -16, -16, -36, -19, 103, 26,
   70, 106, 47, -118, -62, -18, -128, 78,
   33, 33, -7, -82, -85, -122, 124, -94,
   25, -95, -128, 69, 102, 75, -38, 60,
   -62, -39, 27, -127, -60, -48, -127, -40,
   -38, -78, -31, -29, -43, -104, -6, -31,
   -27, -65, -7, 120, -6, -22, -35, -102,
   42, -47, 90, 104, 35, -57, 75, 87,
   -80, 83, -104, -84, 47, 127, 101, -115,
   -127, 80, -127, -87, -28, 45, -11, 84,
   -50, -122, -42, 41, 23, -12, 70, 42,
   -41, 2, -23, 5, -7, 31, -126, 127,
   31, 29, 123, -13, 111, 59, 35, 22,
   28, 69, 33, 117, 42, 7, 72, 17,
   1, 49, -24, -67, 30, 31, 6, -53,
   67, -124, 57, -126, 34, 53, 36, -46,
   -81, 118, -19, -61, -27, 44, -90, 26,
   69, -59, 78, 65, -8, -53, -128, 82,
   74, -68, -29, 90, 57, 47, -82, -25,
   -2, -19, 89, 19, -44, 3, 93, -28,
   -122, 127, 120, -128, -61, -53, 0, -28,
   -98, -95, 17, -86, 120, 50, 26, 37,
   16, 36, -84, -36, -47, 35, 13, 5,
   -66, 2, -20, 28, 69, 30, 7, -51,
   67, 39, -92, 56, 60, 32, -51, -50,
   21, -72, 110, 22, 21, -128, -5, 63,
   -66, 23, -43, -125, 114, 58, 123, -69,
   -28, 127, 24, -66, 3, 29, 52, 35,
   -70, -41, -72, -10, 85, 14, -103, 43,
   -12, 5, -127, -12, 6, 33, -84, -123,
   -124, -37, 93, -86, -19, -80, -44, -48,
   47, 35, -89, 6, 62, 17, -34, 37,
   -1, -79, -32, -87, -30, 45, -15, -12,
   -28, -30, 25, 45, 13, -73, -9, 39,
   -83, 126, -49, -56, -52, 51, -94, -126,
   9, -46, 41, 92, -50, -74, -63, 33,
   29, -126, 115, 86, -8, -3, -127, 39,
   6, -127, -70, -78, 17, 52, -45, 70,
   -10, -25, 43, -66, -31, 1, -128, 24,
   -57, 4, 122, -17, 35, -30, -107, 1,
   25, 29, 0, 79, 91, -15, 3, 29,
   8, -60, -34, 21, 23, -6, -14, -17,
   47, 33, 10, -96, 91, -35, 28, -8,
   -43, 39, -126, -35, -59, 0, -6, -27,
   47, -57, 70, 37, -49, -59, -107, 92,
   23, -57, -31, -11, 44, -19, -27, 35,
   10, 0, 59, 16, -122, -25, 3, -117,
   -17, 0, 99, 17, -26, 34, 125, -118,
   22, -16, -71, 80, 29, -44, -40, -41,
   1, -12, -50, -13, -29, -62, 51, 29,
   -28, 6, -28, -4, 13, -23, -63, -33,
   -53, -86, -96, 29, -25, -52, -13, 44,
   87, -124, 34, 9, 103, -74, 38, 71,
   -106, 70, -49, -47, 13, 28, 127, -83,
   -105, 61, -39, -46, -105, 59, 79, -19,
   16, 76, 43, 95, 20, -27, -77, -128,
   -51, 46, -44, -63, -8, 88, 96, -32,
   24, -1, 37, 46, -74, 127, 117, 124,
   -3, 55, 27, -47, -87, 16, -102, -13,
   -71, -23, -47, -37, -75, -86, 38, -60,
   -2, -1, -19, 99, 0, 51, -72, -7,
   60, -87, 84, 0, -7, -56, -11, 85,
   -47, 39, -39, -50, 78, -2, 127, -49,
   -22, 77, -62, -52, -60, -48, 84, 58,
   68, 63, 59, 13, -27, -87, 80, -46,
   -75, 26, 60, -9, -12, -53, 109, 59,
   30, -23, -29, 30, -4, 79, 111, 98,
   45, -8, 89, 48, -16, -29, 37, -28,
   -65, 12, -1, 62, 65, 11, 64, -7,
   62, -7, -66, 97, -36, 33, 10, 5,
   14, -22, -43, -26, 117, -60, -29, 47,
   56, -20, -24, -45, 18, 63, 31, -79,
   27, 24, -48, 16, 69, -59, -40, 15,
   -25, 61, -120, 29, 73, 116, 35, 22,
   41, -46, -63, 34, 61, -4, -35, -110,
   33, 124, 5, 63, -70, -90, -43, -24,
   -53, -7, 11, 17, 11, -49, -11, 63,
   -19, 15, 16, 19, 61, 60, -78, -55,
   -14, -33, 1, -16, -27, -57, 4, -48,
   -50, 125, -60, 20, -40, 52, -99, 36,
   -19, -41, -8, 41, -36, 17, -128, 56,
   98, -128, 115, 31, -48, 12, -47, 36,
   -13, -22, -69, 33, 25, 95, 34, -61,
   61, -76, -101, 127, 126, -104, 14, 51,
   -77, 125, 54, 5, -60, -112, -7, -89,
   -34, 52, 19, -59, 99, -20, -18, -59,
   39, -27, 1, 16, 15, 13, 33, 16,
   21, -1, 75, -40, -12, -24, 30, -119,
   -127, 127, -55, -18, -122, 100, -21, -18,
   66, -58, 44, 48, -48, -88, -127, 127,
   73, -128, 59, 44, -62, 100, -81, 33,
   63, 64, 109, 58, 27, 44, 109, -112,
   30, 123, 56, -35, 20, -14, 104, 119,
   24, 126, 81, 98, -41, -9, 119, 55,
   -43, -15, 32, -27, -11, -47, -8, -71,
   -23, -42, -55, -43, -10, -76, 7, -47,
   42, -7, -3, -16, -12, 27, -40, -11,
   -48, 7, 119, 0, 4, -22, -3, 72,
   4, -24, -7, -6, -23, 114, 54, -27,
   -2, 83, -81, 16, 6, -18, 26, -68,
   73, 127, -102, -17, 127, -40, 38, -86,
   79, -85, 33, 127, 38, -128, 126, 125,
   127, 125, -127, 116, -125, -101, 105, -55,
   62, 7, 20, -9, -5, 5, 92, -85,
   -72, -35, 66, 11, -20, 13, 37, 100,
   38, -14, -41, 31, -36, -91, 42, -73,
   -70, 73, -8, 0, -5, 36, -9, -60,
   -7, 16, 16, 101, -54, -122, -101, 127,
   95, -128, 127, 39, -96, -31, -34, -1,
   -127, -125, -61, -58, -52, 38, -21, 116,
   45, -98, -21, -56, -4, -26, -123, -117,
   -58, -62, 3, -48, 52, -87, -125, -61,
   -62, -25, 3, -54, 64, -3, 19, -39,
   1, -68, -97, -6, -9, 17, -92, -36,
   -53, -54, -43, -101, 44, 1, -58, -61,
   -66, 125, -44, -68, -112, -6, -76, 26,
   32, 38, 45, 5, -24, -120, -7, 127,
   32, -116, 127, 61, -112, -16, -24, 31,
   -113, -127, 97, -27, 127, -42, -63, -77,
   -126, 59, -98, -57, -23, 30, -127, -73,
   -128, -59, 124, -119, 127, 70, -34, 54,
   -80, -12, 27, -40, 51, -69, 58, -98,
   -18, -26, 27, 73, 104, -65, 28, 123,
   14, 32, 6, 127, -50, -121, -49, -128,
   -127, 127, -127, -118, 80, 71, -126, -14,
   127, -91, 127, 127, -50, -88, -128, 127,
   127, -127, 109, 127, 19, 58, -126, -19,
   37, -125, 66, 115, -75, 126, 102, 127,
   101, 93, 125, -91, 3, 127, -50, -98,
   -85, 26, 77, -118, 121, -116, -82, -37,
   101, -25, 65, 27, 12, 119, 74, 76,
   -52, 41, -15, 51, 27, 127, -72, 127,
   77, 56, 47, -64, 34, -58, 95, 27,
   127, -74, 79, 99, 29, -68, 88, 126,
   -77, 37, -32, -77, 89, 70, 116, -71,
   -103, 41, -127, -47, -2, 47, 13, -3,
   60, 32, 104, -14, -65, 25, 112, -50,
   3, 18, 99, 71, 65, -124, 93, 123,
   63, 15, -96, 13, -65, -29, 66, 9,
   -70, -44, 57, 38, -46, -12, 19, 30,
   -19, -27, 28, -8, 49, -15, -24, -11,
   -58, -2, -47, 48, 76, 36, 42, -93,
   -40, -119, -6, -62, -36, 30, 74, 69,
   -56, 16, -34, -3, 50, -52, 2, -7,
   103, 17, -44, 85, 5, -29, 83, -51,
   -116, -128, 76, -100, 29, -20, -18, 94,
   -20, -4, 114, -6, -29, 77, -128, -90,
   -85, -128, -19, -87, 127, 41, -20, 127,
   124, -2, 65, -49, -36, 6, 43, 49,
   -53, -30, 36, 13, 48, 30, 70, 67,
   127, 55, -2, 49, 125, 44, 39, -11,
   50, -127, 92, 65, 51, -96, 34, 124,
   -9, 40, -127, -39, 76, 34, 59, -47,
   -87, 124, -70, -125, 89, -14, 126, 19
};

static const rnn_weight vad_gru_bias[72] = {
   -128, -127, 24, -84, 28, 81, -106, 121,
   -53, -34, -73, -128, -59, 31, -127, -123,
   -127, -125, 97, -127, 123, 126, -125, -11,
   36, -8, 32, 85, 37, 52, 24, 79,
   63, 66, 40, 22, 39, 8, 2, 15,
   75, -24, 54, -38, 17, 49, 22, 58,
   6, -59, 5, 5, 38, -26, -4, -36,
   -10, 11, -12, -19, 8, 5, 78, -53,
   -54, 42, -120, -45, 59, 33, -7, 5
};

static const GRULayer vad_gru = {
   vad_gru_bias,
   vad_gru_weights,
   vad_gru_recurrent_weights,
   24, 24, ACTIVATION_TANH
};

static const rnn_weight vad_output_weights[24] = {
   127, -128, 127, 127, 127, -128, 127, 100,
   -128, 127, -128, -128, 127, 127, 127, -128,
   -128, 127, -127, -128, 81, -128, 127, 127
};

static const rnn_weight vad_output_bias[1] = {
   80
};

static const DenseLayer vad_output = {
   vad_output_bias,
   vad_output_weights,
   24, 1, ACTIVATION_SIGMOID
};

const struct RNNModel model_mp = {
    24,
    &input_dense,
    24,
    &vad_gru,
    1,
    &vad_output,
};
