/*
 * SUITE: somnolent-hogwash-2018-09-01
 *
 * INTENT:
 *
 * Speech in a reasonable recording environment. Fans, AC, computers, etc. Note
 * that "speech" means speech, not other human sounds; laughter, coughing, etc are
 * not included.
 *
 *
 * SIGNAL:
 *
 * voice
 *     hamlet-002-act-1-scene-1.1626
 *         http://etc.usf.edu/lit2go/94/hamlet/1626/
 *     human_rights_un_chi_nf.mp3
 *         https://librivox.org/universal-declaration-of-human-rights-by-united-nations-volume-02/
 *     human_rights_un_cze_msed.mp3
 *         https://librivox.org/universal-declaration-of-human-rights-by-united-nations-volume-02/
 *     huntingofthesnark_01_carrol_128kb
 *         https://librivox.org/the-hunting-of-the-snark-by-lewis-carroll-3/
 *     teacupclub_01_armstrong_128kb
 *         https://librivox.org/the-teacup-club-by-eliza-armstrong/
 *     warletters_01_allan_128kb.mp3
 *         https://librivox.org/war-letters-from-a-young-queenslander-by-robert-marshall-allen/
 *     TSPspeech
 *         http://www-mmsp.ece.mcgill.ca/Documents/Data/
 *
 *
 * ./chopper voice/hamlet-002-act-1-scene-1.1626.raw voice/human_rights_un_chi_nf.raw voice/human_rights_un_cze_msed.raw voice/huntingofthesnark_01_carrol_128kb.raw voice/teacupclub_01_armstrong_128kb.raw voice/warletters_01_allan_128kb.raw voice/TSPspeech.raw
 *
 *
 * NOISE:
 *
 * rnnoise_contributions (only "other" and "none" samples)
 *     https://people.xiph.org/~jm/demo/rnnoise/rnnoise_contributions.tar.gz
 *
 *
 * COUNT: 13212874 (x87)
 *
 * NOTE: All files processed into correct raws through ffmpeg: ffmpeg -i in -f s16le -ac 1 -ar 48000 out.raw
 */

/*This file is automatically generated from a Keras model*/

#ifdef HAVE_CONFIG_H
#include "config.h"
#endif

#include "rnn.h"
#include "rnn_data.h"

static const rnn_weight input_dense_weights[1008] = {
   -16, 13, 24, 36, -17, 5, 8, 55,
   19, 3, 36, -72, 41, 11, 7, 1,
   57, -16, 0, -16, 7, 9, 7, -13,
   -28, 17, 9, -39, -10, -4, 26, 23,
   11, -16, -13, -58, 58, -17, -7, 3,
   28, -32, 60, 35, -26, 6, 13, -11,
   -15, 2, 68, -19, -40, 25, -44, -5,
   26, 10, 22, -54, 22, -18, 0, 7,
   40, 31, 18, 49, -32, -53, 22, -45,
   -50, 8, 50, -68, -10, -52, 54, -37,
   -30, 61, 40, 12, -33, -27, 5, 47,
   -28, -40, -17, 13, -17, -71, -44, 25,
   61, 20, -8, 29, -8, -55, -54, 38,
   -6, 0, 66, -23, -9, -6, 21, 34,
   0, -46, 22, -48, 25, -26, -81, -32,
   -13, 38, -15, 10, 8, 28, 59, 66,
   6, -65, -2, -20, -68, -27, -2, 16,
   8, 27, 26, -10, 33, 31, -30, 9,
   114, -87, 1, -12, 80, -19, -66, 86,
   1, 6, -91, 81, -51, -85, 72, 4,
   117, -121, -125, -125, -17, 121, 56, 99,
   65, -3, -4, 99, 123, 54, 127, 64,
   -32, -1, -53, -86, 52, -65, 72, 115,
   33, -53, 11, -40, -3, 94, 19, 126,
   127, -122, 9, 52, 127, 100, -60, 51,
   36, 2, -128, 73, -68, -69, 29, -4,
   106, -115, -126, -52, 29, 127, 29, 52,
   -64, 96, -115, -13, 126, -47, -29, 40,
   -59, -35, -59, 0, -114, 63, 18, 48,
   123, -121, -48, -87, -4, 30, -125, 66,
   30, 73, -117, 37, 70, -95, -121, -23,
   110, 110, 13, -97, -18, 58, -31, -30,
   53, -53, -69, -6, -5, 17, 46, 8,
   63, -119, -44, -107, 122, 94, 40, 14,
   -112, -77, -66, 85, -128, -126, 48, 32,
   121, -48, 50, 7, -27, 13, 9, 3,
   -112, 127, -86, 62, -51, 121, -127, -114,
   127, 88, -8, -53, 50, -10, -63, -39,
   127, 61, -20, -29, -69, 69, 83, 43,
   -124, 87, -7, 104, 51, 62, 8, 81,
   127, 21, 126, 125, 106, -41, -37, -124,
   58, 39, 1, 126, -10, -47, 53, -24,
   24, -23, -13, -23, -1, 51, -23, 9,
   127, 89, -125, -125, 127, 127, -79, 12,
   -20, 83, 1, 19, 51, 27, -51, 19,
   51, -23, -3, -39, -27, 126, 3, -30,
   99, 35, 122, -9, -109, 71, 9, 40,
   116, 90, -20, -118, 109, 32, 71, 48,
   -128, 56, 125, 57, 29, -107, -120, 23,
   127, 65, -121, 80, 94, 89, -23, -124,
   81, 36, 8, 113, 80, 124, -78, 25,
   -110, -54, 66, -8, -30, 127, 25, 122,
   -11, 55, 127, -8, 111, 99, 75, 13,
   92, 22, 73, -24, 34, -122, -123, -57,
   -47, -118, 17, 61, -6, 48, -55, -1,
   127, 108, 78, 6, -28, -32, 60, -111,
   107, -75, 1, 113, -45, 123, -11, -39,
   33, 27, 90, 77, 13, 67, -6, 90,
   -20, -15, 100, 114, 120, 114, 124, -97,
   -126, -72, 1, -128, -126, -35, -89, 117,
   6, -103, -24, 30, -21, -5, -56, 76,
   104, -11, -34, 46, -98, 52, 43, -88,
   39, 41, 114, -69, -9, 17, -32, -88,
   -119, 127, 127, 114, 98, 111, -16, 8,
   117, -9, 122, 4, 126, -97, -34, -128,
   50, -97, 41, 61, -71, 127, -54, 5,
   -71, 31, 21, -54, 15, 96, 39, 9,
   -27, 121, 8, -89, 80, 127, 125, 115,
   -128, -58, 39, 18, 127, -56, 47, -78,
   -26, 26, 119, 95, -120, -128, -6, -128,
   122, -20, -125, -80, -37, -86, -6, 43,
   -97, -101, 124, 89, 87, 102, 125, -128,
   -118, -26, 85, 114, -101, 127, -31, -48,
   -5, 91, -66, -67, 7, -86, 96, 9,
   -76, 8, 82, -47, -108, 18, 126, -128,
   -117, 117, -77, -20, -23, 81, 41, -9,
   -28, 127, 127, -115, 127, 101, 86, 117,
   2, -106, -32, 12, 58, -52, -79, 3,
   31, 46, 119, 96, -45, -101, -70, -54,
   108, 4, -45, -49, 57, -128, 86, 55,
   -105, -126, 120, 71, -57, 73, -20, -118,
   -109, -21, -74, -34, -18, 127, -2, -70,
   -13, 27, -21, 45, -70, -96, 17, 97,
   37, 32, 3, 102, -124, 3, -25, -21,
   39, 65, -2, -109, -19, 58, -60, -97,
   2, 127, 100, -52, 119, 38, 46, 32,
   3, -91, 12, 12, 87, -47, 25, -58,
   -64, 4, 80, 9, -4, -36, -20, -12,
   40, -11, 4, 31, 51, 124, 61, 57,
   -36, 54, 54, 78, -46, -46, 24, -49,
   -10, -1, 3, -65, 1, 9, -59, 110,
   -50, 14, 73, -33, -113, 15, 17, -47,
   -64, 3, 27, -37, 7, 57, 17, -78,
   -14, -71, 94, 50, 13, -50, 82, 21,
   -84, 77, 39, 110, 78, 20, 46, 36,
   -71, -18, 19, 75, -20, 47, 9, 0,
   120, 86, -48, -69, 29, -6, -69, -5,
   -5, 23, 32, -81, -116, 34, 3, 121,
   -48, 64, 31, 35, 25, -63, 11, -37,
   -6, -58, 118, -70, 59, -6, -75, 11,
   -3, -29, -37, 55, 99, 8, -20, 81,
   -31, 68, -31, 43, -74, 60, -27, 1,
   58, 118, -127, -114, -116, 123, -13, 7,
   21, 127, 27, -121, -14, -54, -128, 98,
   -53, 127, 126, 30, 118, -57, 124, -116,
   42, 127, -128, -114, -117, 123, 23, 58,
   70, 127, 3, -119, -119, 25, -128, 127,
   -82, 127, 64, -122, 120, -31, 126, -116,
   -64, 124, -111, -102, -112, -33, 26, 77,
   31, 42, -42, -82, -50, 114, 90, 117,
   -44, 127, 71, -128, 50, -71, 3, 82,
   -63, 9, 46, 118, 64, -59, -82, 39,
   106, -113, 11, 107, 59, 84, -17, -18,
   -36, 61, 37, 97, -51, 22, -127, -50,
   -77, 83, -6, -35, -77, 124, 73, 75,
   89, 74, -49, -29, 54, 99, -10, -39,
   -39, 9, 34, 58, -23, -55, -30, -81,
   -99, -25, 43, -123, 127, 0, 124, 123,
   78, -81, 43, 19, 46, 11, 119, 43,
   119, -16, 7, 49, -93, 8, -125, 127,
   -70, -15, 27, 73, -1, -31, -18, -9,
   -35, -46, -52, -34, 1, -33, 32, 20,
   -22, -46, -33, 91, 44, -42, -38, 56,
   -64, 61, -38, 28, 80, -19, -14, -55,
   39, -10, 65, 58, -25, 89, 4, 48,
   6, 58, -15, -61, 67, -128, -26, 49
};

static const rnn_weight input_dense_bias[24] = {
   -29, -110, -15, 27, -55, -124, 82, -100,
   -127, -1, -121, -32, -64, -2, -55, 104,
   -111, 27, -33, 42, 82, -34, 1, -82
};

static const DenseLayer input_dense = {
   input_dense_bias,
   input_dense_weights,
   42, 24, ACTIVATION_TANH
};

static const rnn_weight vad_gru_weights[1728] = {
   6, 91, -48, -46, 101, -56, -50, -13,
   -33, -73, -123, 79, -128, -75, 28, -6,
   19, 68, 116, -16, -30, -108, -80, 65,
   -42, -41, -58, 66, -36, 51, 48, 60,
   35, -99, -44, 6, -86, -65, -61, 14,
   -44, 58, 16, -37, -14, 18, 35, 0,
   -41, 18, -5, 11, -35, 11, 8, 29,
   -29, -63, 6, 87, 75, -38, -13, -18,
   -40, -48, 60, 11, -26, -14, -30, -13,
   -89, -111, -56, 34, -42, 16, -85, 17,
   40, -60, 114, -121, -61, 68, 73, -5,
   106, -13, 24, -56, 71, 7, 50, -57,
   -13, -54, -59, -44, 42, 61, -119, -93,
   -28, -6, 16, -32, 34, -44, 49, 32,
   -50, 17, -62, 6, -52, -5, -13, 41,
   -16, 5, 18, -44, 89, 0, -50, 14,
   1, 62, -27, -68, -33, 14, -7, -22,
   8, -29, -54, -18, -27, 69, -49, -80,
   63, 30, 127, 26, -28, 63, 48, 127,
   -2, 28, 125, 29, 124, 119, -7, 106,
   -26, -123, 63, 37, 95, 48, 113, -6,
   7, 74, 127, 74, 51, 48, -78, -1,
   -33, -11, 125, -103, -10, -26, 78, -6,
   35, -60, -87, 105, -4, -38, -14, 64,
   -17, 33, -27, -21, 5, -53, 7, 14,
   37, 45, 13, -80, 2, -45, 8, -60,
   -9, -47, 67, -35, 69, 14, 29, 6,
   -75, -68, -92, 99, 4, -120, -63, -45,
   0, -5, -102, -30, 44, 0, -66, -13,
   -86, 12, 15, 78, 19, -85, -30, 61,
   -112, 19, -50, 46, -75, 27, 126, -2,
   52, 22, -71, 14, -31, 82, 30, -22,
   47, -65, 28, 106, -12, -10, 36, -4,
   -56, 46, -27, -27, -13, -4, -6, -35,
   -58, 2, 52, -3, -13, -47, -41, 11,
   -85, -44, 12, 24, 80, -27, -32, 8,
   125, -64, 90, 18, -60, -109, 126, -59,
   64, 72, -43, 49, 72, 127, 53, 83,
   90, 107, 127, 27, 77, 59, 123, -8,
   113, 12, 41, 97, 28, -41, 83, 70,
   -50, 57, -124, -62, 7, 32, 127, 2,
   35, 113, 121, -72, 72, 126, -104, -45,
   44, 92, -30, 111, -46, 62, 74, 7,
   -106, -126, -113, -17, -65, -113, -111, 111,
   -74, -80, 90, -10, 52, -115, 85, -4,
   92, 105, 7, 110, 127, 2, 69, 77,
   3, 1, 11, -75, -62, 37, 121, 115,
   48, 96, 24, 39, 42, 67, 67, 12,
   125, -34, 35, 7, 40, -54, -72, 10,
   44, 25, 35, -126, -36, -21, 59, 19,
   -44, -8, -45, -69, -1, -90, 64, -75,
   85, 70, 85, 51, 30, 10, 41, 78,
   -11, 21, 30, -45, 3, 14, 10, -26,
   14, 18, -67, -48, -76, 27, -20, -21,
   -9, -77, 2, 127, -76, 29, 26, -30,
   127, 5, 41, 121, 127, 31, -64, -39,
   4, -49, -121, 6, 69, -67, 5, -122,
   -100, -18, -117, -23, -26, 41, 4, -96,
   -81, 11, -9, -14, 106, -97, 65, -126,
   127, -20, 44, 8, -28, -40, -102, -56,
   30, -90, -90, 11, 5, -99, 1, 43,
   59, 5, 42, -39, -31, -17, 94, -1,
   18, 87, -24, -39, -19, 52, -73, -17,
   79, 4, -67, 2, -117, 10, -9, -14,
   -13, -25, 127, -71, -79, 29, -8, -90,
   26, 35, -24, -30, -3, 106, -6, -68,
   63, 9, 28, 5, 31, 35, -74, -75,
   16, 36, 39, -122, 11, 3, 43, 74,
   -26, 124, 45, -15, 42, 64, -18, -58,
   54, 41, -9, -40, -70, -1, -16, -33,
   -3, 38, -25, -71, -31, 34, 8, -51,
   48, -33, -6, -44, 25, -72, -6, 62,
   -36, -69, -84, 17, -56, -128, -109, -14,
   -60, -88, -52, -127, -125, 90, -7, -73,
   -84, -28, -77, 39, 28, 109, 117, -124,
   -72, -1, 43, 12, 44, -5, -44, -50,
   -6, 95, 69, -106, -6, -15, -14, 11,
   -32, -57, 53, 31, 12, -4, -35, -88,
   -2, 16, 38, 9, 74, 24, 24, 13,
   -24, 109, 42, 32, 25, 31, -22, -36,
   -57, -27, -1, -11, -3, -28, -23, 17,
   19, 60, 29, -44, 74, -86, 19, -50,
   -6, -92, 28, 27, -68, -31, 22, 125,
   6, -64, -20, -124, -97, -30, -75, -37,
   25, -105, -61, -35, 120, 21, 4, -41,
   -77, -75, 54, -9, -118, -35, -112, 58,
   -81, 91, 64, -122, -89, -70, 18, 62,
   105, -119, 102, 3, 119, -17, 2, 99,
   40, -21, -9, -51, 51, 58, 103, -87,
   -10, 116, -101, 8, -43, 125, -125, -72,
   -49, -64, -9, -6, -81, -65, 85, 56,
   -20, -19, 49, -108, -38, 33, 1, 11,
   -56, -9, 5, 55, 21, -9, 42, -87,
   42, -11, 68, -37, 37, -30, -118, -82,
   -4, 5, 9, -120, 0, 33, 11, 98,
   -71, -87, -79, -49, 15, 37, -70, 21,
   -30, -34, 1, -49, 1, -58, -3, -44,
   53, -11, 63, -27, -3, 0, 55, 37,
   58, 32, -14, -2, 36, 52, 0, 6,
   -74, 26, -8, 6, 95, 77, -39, -63,
   -3, -64, -126, 57, 53, 91, 27, 95,
   -15, 23, 57, -26, 60, 20, 87, 33,
   -26, -12, 59, -58, 55, -60, -18, 77,
   -51, -4, -77, 60, 41, 14, -5, -8,
   -18, -40, 56, 21, 42, -7, 18, -12,
   20, -44, -17, -44, -9, -6, 29, -30,
   76, -49, 76, 10, -39, 28, 33, 63,
   -66, -1, -23, 25, 63, -37, 86, 57,
   99, -23, -48, -49, -79, 3, 5, 1,
   58, -9, -1, -81, -74, 39, -2, -1,
   107, 58, 42, 62, -1, -42, -3, -45,
   -9, -15, -53, -68, 4, 28, 5, -68,
   -46, -41, 73, -101, 48, 51, 38, 72,
   -41, -97, -82, 20, 64, 44, 28, -56,
   25, -22, 42, -60, -7, -7, 79, -26,
   -36, 34, -35, -27, -26, 23, 53, 30,
   24, -47, 46, 30, 29, 44, 60, -19,
   57, 70, 10, 55, -63, -41, 9, -86,
   39, 19, -61, 29, 21, -43, 75, 117,
   43, 0, 106, -126, -31, 38, 81, 60,
   122, -38, 7, -96, 124, -46, -55, 79,
   -116, 4, -110, -15, 86, -64, 5, 124,
   -41, -120, -3, 114, -117, -34, -23, 123,
   108, -43, -38, -78, 82, -34, 61, 50,
   56, 10, 41, -25, 47, -28, 23, -65,
   82, -14, -85, 61, -43, 9, 53, -76,
   0, 108, 127, 40, 82, 120, 126, 126,
   -74, 1, -111, -73, 105, 121, 115, -8,
   120, 81, 127, 58, 127, 127, 127, 122,
   119, -29, 127, 56, 126, 127, 87, 104,
   17, -81, -31, -113, 119, -56, 121, -101,
   72, 28, -95, -102, 81, 115, 59, 126,
   91, -1, 77, 8, 80, 61, 33, 31,
   123, 19, 15, -99, 21, -113, 44, -127,
   -49, -106, 23, -19, 122, 16, 92, 0,
   -42, 110, 94, -120, -81, -102, -12, 94,
   -48, -3, -43, 121, 61, 5, -107, -86,
   -77, -122, 92, -40, -75, -2, 26, 14,
   -17, -76, -15, 117, 12, 30, 75, -102,
   -60, 4, -44, 8, 1, -39, 5, -127,
   -37, 93, 29, -52, -41, -35, -2, 58,
   -17, -9, -9, -18, 109, -92, -123, 64,
   72, -13, 116, 28, -16, 34, 74, -117,
   27, 44, -71, -33, -15, 91, -119, -104,
   -106, 77, -41, 16, 6, -44, -19, -88,
   0, 7, -14, -123, -126, 62, 64, -53,
   63, 87, 23, 51, 101, 87, 59, -55,
   -12, 9, -2, -86, 35, -13, 12, -21,
   76, 14, 28, -50, -111, 52, 50, -28,
   -56, 60, -1, -89, 68, 30, -31, -51,
   -19, -20, -38, 44, 19, 118, -2, -80,
   -49, 52, -41, 48, -10, -36, -87, -5,
   -99, -26, -32, 62, -71, -97, -13, 33,
   -15, 124, 44, 35, -45, 17, -127, -13,
   -95, 21, -3, 49, -42, -83, -103, 118,
   -125, -117, -109, -56, -83, -105, -116, 25,
   -17, -82, -56, -31, -13, -81, -108, 66,
   -60, 18, 11, 120, -123, -97, -70, 57,
   14, 95, -20, 79, -13, 10, 100, 24,
   -51, 21, -2, 39, 46, 2, -52, -14,
   -22, -23, 33, 3, 24, 1, -37, 35,
   53, 16, -74, 39, -72, -32, -28, -70,
   101, -6, -11, 49, 46, 60, -122, 78,
   -5, 32, -128, -50, -67, -42, 8, 82,
   78, 127, 64, -24, -48, 115, -5, -34,
   -105, -33, -22, 19, 14, 49, -4, -86,
   -5, -10, -8, -18, 126, -53, 113, -19,
   62, 0, -50, -18, -55, -96, -17, -62,
   46, -9, -34, 8, 82, -126, -63, -3,
   81, 37, 94, -22, 26, -33, 78, -5,
   77, 104, -37, -16, -125, 5, -9, -30,
   18, -56, 48, 33, 123, 77, -33, 127,
   -65, 1, -85, -59, 77, -5, 39, -17,
   73, -32, 7, -10, -12, -39, -68, 92,
   -45, -45, -3, 20, -83, -12, 49, 55,
   1, -36, -71, 127, -9, 62, -22, -25,
   55, 35, -53, 97, 115, 117, 56, 74,
   -35, -26, 38, 85, -81, -10, 27, -36,
   -57, -36, -23, -13, -79, 20, -63, 61,
   22, -70, -59, 17, 34, -29, 84, 4,
   77, -7, 34, -11, -40, -117, -37, -122,
   48, -12, -29, -1, 68, 72, -15, 46,
   -94, 53, 94, -128, -105, -53, -50, -51,
   53, 16, -9, 126, 93, -15, 114, 45,
   -48, -97, -121, 28, -41, -47, -42, 32,
   68, 26, 121, 19, -84, -18, -84, 55,
   -20, -25, 38, -54, 70, 54, -78, 62,
   11, 33, -45, -13, 24, 10, 115, -74,
   -62, 68, 15, -106, -8, -10, -126, -111,
   30, 33, -31, 123, 47, 81, 56, 10,
   94, -59, 127, -9, -58, 118, 126, 124,
   74, 127, 38, 80, 96, 123, 102, 124,
   29, 22, -40, 65, 86, 1, -91, 18,
   98, 56, 35, 39, 81, 73, 16, 23,
   11, 60, 17, -9, 100, 13, 52, -13,
   -59, -6, 60, 77, -85, 10, 46, -44,
   -4, 32, -123, 26, 47, 43, 8, 64,
   -71, -125, 43, -14, -35, -52, 63, -40,
   106, 9, -109, 62, 37, -14, -58, -57,
   29, -54, -122, -68, -126, -101, 66, 120,
   -28, 117, 47, -42, -59, 112, -99, 98,
   -91, -25, 52, -67, 51, -27, 73, 15,
   -29, 47, -117, 71, -39, 55, 25, 25,
   -124, -19, -32, 106, -127, -105, 102, -8,
   12, -87, 9, -66, 22, 17, -113, 113,
   49, 19, 2, -52, -21, -7, 116, 21,
   68, 126, -75, -66, -109, 34, -64, 26,
   -67, -113, 102, 10, -37, -56, 122, -115,
   7, 19, 101, 61, 106, 127, 18, -6,
   90, 32, 68, 84, 73, -38, 50, -60,
   105, 117, -14, 28, 42, -114, -53, 56,
   37, -31, 29, 9, 23, -89, -13, -123,
   25, -56, 119, -124, 124, 125, -62, 10,
   -15, 127, 14, 108, -32, -17, 54, -30,
   -47, 26, -52, 85, -49, -45, -126, 70,
   -121, -69, 87, 62, -30, -72, 32, -2
};

static const rnn_weight vad_gru_recurrent_weights[1728] = {
   94, 99, 3, 47, 75, 15, 26, 17,
   43, 21, -51, -43, 52, 50, 77, 116,
   83, -33, 5, -64, 4, 127, 51, -27,
   80, 30, -35, -21, 13, 27, -121, 66,
   3, -36, -30, -96, -13, -24, -49, 32,
   52, -14, 7, -91, 31, -72, -54, -34,
   72, -111, 21, -101, 106, 1, -97, 127,
   127, 86, 21, -88, -4, 21, 127, -85,
   115, 90, -72, -36, -73, 127, -104, -101,
   -25, -76, 38, -75, -32, -123, -75, -96,
   -103, -63, -64, 50, 87, -123, -47, -53,
   -108, -112, -5, -64, -57, -120, -126, -25,
   58, -50, 43, -56, -31, -59, 109, 10,
   18, -75, -25, -57, 50, -33, 11, -43,
   -31, 44, 49, 28, -42, -92, 48, -13,
   -17, 66, 20, 3, -56, -59, 17, 27,
   -15, 31, 45, 82, -8, 17, -1, -54,
   44, 10, 54, -74, 31, 0, 63, -38,
   -115, 127, 44, -83, -128, -123, -21, -87,
   -109, 127, -128, 110, 114, 61, -128, -91,
   -127, 37, 49, 1, -25, 106, 45, -125,
   36, 78, 21, 68, -39, 43, 17, 2,
   -27, -74, 10, 75, 35, -48, -4, 1,
   62, 26, -31, 85, -114, -119, -25, -21,
   4, 48, 5, -97, 53, -51, -93, -16,
   17, -109, -100, 66, 97, 73, 115, 45,
   91, 33, -18, -125, 22, 80, -121, -121,
   -49, -115, 68, -97, -27, -5, -83, -69,
   -89, -55, -20, 92, 67, -103, -84, -127,
   -98, -109, -72, -52, -107, -126, -22, -66,
   25, -2, 27, 53, 10, -22, -16, 24,
   40, -10, -117, 76, -47, -123, 0, -76,
   -30, 19, -3, -77, 52, -96, 47, -48,
   -92, 19, 118, 13, -116, -125, 18, -49,
   -70, 42, 22, 0, 20, 17, 15, 9,
   -11, -58, 4, -9, 51, -77, 75, 3,
   26, 125, -5, 61, -75, 52, 52, 51,
   16, 45, 71, 28, 26, 114, -20, 65,
   -37, -10, 36, -19, -39, 77, 35, -10,
   61, 93, -82, 42, -57, -14, -30, -8,
   13, 9, 13, -26, -9, -18, 35, -25,
   88, -1, 23, -39, 43, 37, 0, 28,
   18, -61, 26, -44, 83, 53, 15, 90,
   90, 118, 80, 44, -4, 26, 82, 26,
   47, 47, -30, -35, -2, 79, -55, -61,
   88, -13, -50, 94, 127, -25, -19, 76,
   -1, -53, -48, -128, -40, -107, 121, 96,
   103, 70, 42, -24, 65, 77, 58, 14,
   10, 21, -12, -27, 71, -26, -79, -51,
   -26, -49, 0, -5, -2, -52, 13, -53,
   -14, 63, -59, -89, -7, 13, 68, -41,
   -42, 75, -103, 71, -76, 76, 84, -20,
   -39, 15, -74, 120, -35, -10, -127, -38,
   -127, -74, -38, -8, 106, -46, 112, 64,
   127, -112, 126, -21, 127, -62, -126, 0,
   16, -113, 43, 29, 44, -125, 125, 12,
   -72, -32, 22, -22, 26, -94, -117, 25,
   120, -47, -4, 14, 10, -34, -53, 14,
   16, -104, 57, -11, -12, 23, 14, 112,
   -4, -53, -17, 67, 47, 104, -22, -10,
   -27, 99, -56, 51, -127, 114, -13, -82,
   -125, 76, 0, 29, -88, -117, -127, 90,
   -101, 8, -36, -18, 53, -99, -7, 52,
   22, 111, -86, 112, 38, -59, 103, 40,
   126, 14, -77, -21, -42, 61, 102, 81,
   -24, 95, 69, 124, 125, 118, 71, 18,
   -8, 40, -87, 83, 1, 5, 42, 64,
   -4, 63, -3, -128, -35, 17, 23, -45,
   15, 61, 36, -20, -30, 36, -16, 21,
   91, -127, -15, -102, 97, -50, 11, 86,
   119, -1, 90, -12, 38, -37, 122, -56,
   60, 20, -61, -60, -64, 55, -34, -82,
   -4, 127, -40, 116, 114, 99, 113, 122,
   54, 115, -51, -6, 29, 123, 116, 103,
   96, 76, 100, 82, 113, 127, 127, 85,
   34, 2, 31, -1, 14, 35, -9, 38,
   22, 88, 119, -15, 26, -37, 18, -50,
   75, -42, -96, -54, 14, -30, 17, -37,
   -4, -80, 112, -43, 79, 25, -16, 18,
   51, 50, 24, -13, 82, -101, 88, -18,
   29, -34, 16, 74, 13, 11, 7, 33,
   68, -8, -74, -101, -32, -93, -116, -87,
   6, -43, 127, -118, -124, 31, -7, -38,
   -28, -40, -104, -114, -125, -51, -66, -63,
   70, 6, 6, -12, 61, -78, -122, -93,
   -105, 26, 124, 31, -104, -87, -127, -20,
   42, -67, -20, -63, -24, -11, -44, -88,
   -30, -58, -20, 6, -42, 65, 8, -40,
   31, 86, -29, -62, -96, -35, -36, 46,
   83, 14, 17, 34, -25, 15, -26, 27,
   -122, -67, 7, 40, -96, -102, 74, -66,
   -128, 65, 84, 102, -21, 72, -126, -107,
   -77, -101, 32, 70, 84, 34, 116, -123,
   -61, 117, -65, -84, -15, 105, -1, 66,
   -19, 123, 73, -108, 69, 119, -19, -117,
   7, 44, 104, -60, 120, -93, 114, -3,
   -124, 17, -95, 42, -5, -24, -45, 29,
   -85, -22, 121, -76, -102, -111, -14, 126,
   16, 20, 122, 124, 78, -99, -19, 112,
   116, 58, 105, -31, 126, 106, -10, 77,
   74, -100, -103, -128, -28, 29, 124, 50,
   97, 27, -54, 49, 114, 58, 80, -52,
   -128, 40, 116, -91, -69, -15, 71, -114,
   98, -120, -1, -34, 122, 123, -10, -51,
   19, -56, -41, -29, -66, -62, 15, -46,
   127, -128, 22, -128, 127, -88, -126, 125,
   126, -36, 6, 114, 40, -128, 127, -53,
   117, 127, -126, -97, -126, 125, -48, -126,
   -128, 120, 105, -95, -128, -128, -16, -93,
   -120, 119, -123, 94, 108, 40, -128, -115,
   -127, 95, -27, 29, -27, 116, 106, -116,
   -33, 117, 16, -36, -111, 112, -69, -102,
   -28, 127, -27, 32, 16, -48, -93, -57,
   46, -76, -29, -39, -108, -37, -40, 58,
   57, 18, 111, -68, 127, -82, -108, 83,
   99, -87, 10, -26, 51, 87, 127, -51,
   127, 33, -84, -126, 24, 109, -102, -125,
   -127, 12, -51, 6, -126, -117, 98, 13,
   -34, -63, 113, 122, -64, 79, -116, -121,
   -63, -25, -13, 37, -2, -53, 87, 66,
   -20, -92, -36, 125, -38, 37, 96, 34,
   31, 45, -83, 23, -101, 99, 60, -8,
   48, -26, 22, -19, 49, -18, 127, 74,
   10, -2, 117, -7, 127, -92, -60, 8,
   95, 29, 29, -15, 120, 66, 115, -73,
   117, -9, -10, -27, -88, 37, -86, 25,
   85, 127, -66, 113, 11, 42, -19, 34,
   20, 37, 34, 36, -49, 30, 86, 86,
   -11, 9, 62, 60, 77, 101, 71, 20,
   3, 7, -2, 59, 32, -1, -18, 25,
   -74, 115, -14, -15, -3, 17, 12, 83,
   48, 58, 61, 83, 29, 2, -27, 41,
   -17, -3, 50, -107, -8, 67, -22, 75,
   43, 73, -79, -59, 67, -91, 7, 47,
   27, -96, -18, 8, -99, -31, 37, 43,
   -65, -92, 25, 63, -2, 123, 104, 16,
   -38, -4, -84, -16, 92, 54, 31, 62,
   121, 124, 42, -64, 58, 113, 126, 46,
   -65, 28, -49, -79, -65, -49, -7, -66,
   41, -18, -98, 52, 20, 41, 30, 23,
   -13, 14, -34, 100, -52, -78, 5, -36,
   -81, -85, -93, 67, -127, 44, 80, -94,
   -40, -24, -68, -118, -77, 12, 64, 94,
   126, -92, 38, 110, 90, -105, 114, 92,
   -83, 20, -36, 0, -108, 68, 65, -3,
   -34, 39, 86, 100, 18, 85, -113, -53,
   99, -17, 23, 1, -29, -36, -6, -8,
   30, 20, 11, 64, -27, -29, 14, 89,
   48, 18, -77, 47, 74, 107, -13, 81,
   35, 35, 32, 127, 89, 13, 63, 88,
   14, -16, 123, 21, 80, -49, -55, -36,
   59, -65, -86, -70, -24, -46, 44, -57,
   56, 11, -43, 30, -19, -23, -6, -8,
   100, 22, -83, 22, -56, 42, -126, -100,
   109, -19, -66, 15, -122, -31, 2, 97,
   38, 104, -61, -37, 41, 127, -82, -127,
   -61, 12, -110, 5, -8, -81, -9, 56,
   -51, 25, -65, -56, -32, 87, 16, 33,
   -8, 84, 26, 13, -3, -64, -37, -6,
   72, -119, 13, -49, 13, -127, -61, 79,
   86, 45, 115, -34, 34, 47, 113, 37,
   33, 48, -68, -7, -103, 112, -102, -9,
   60, -18, 125, -48, -46, -76, 112, -17,
   -11, 127, 122, 95, 122, -35, -108, -127,
   -100, -87, -76, -83, -69, -118, -23, 29,
   9, -43, 40, 83, -34, -59, 63, 52,
   -27, -59, -10, -60, 97, 31, -14, -45,
   7, -6, 43, 33, -5, 55, -93, -33,
   -117, 30, -24, 69, -48, -34, 83, -42,
   -68, 19, -70, 5, -32, -7, -62, 66,
   -21, -79, 49, 49, 120, -26, -20, 8,
   -16, -109, 23, -3, 88, 49, 122, 21,
   -84, -41, 59, -38, -27, 78, 127, 54,
   47, -37, 68, -81, -13, -80, -45, 82,
   120, 35, -46, -103, 10, -82, 88, 19,
   5, 26, -54, 75, -107, -82, -52, 68,
   -68, -4, 10, 9, 83, 116, 7, 31,
   -120, 114, -76, 124, -125, 73, 63, -123,
   -127, -39, -22, 35, -121, -120, -127, 127,
   -110, -118, 77, 110, 106, -118, 114, 44,
   -105, -114, 126, -122, 12, -116, -88, -108,
   -108, 21, -28, 108, 122, -99, -120, -59,
   -112, -125, -127, -100, -85, -127, -120, -101,
   -25, -30, 119, -36, -8, -44, 18, -23,
   -13, -115, 79, -35, 90, -20, -27, -40,
   -41, -46, 25, 32, -21, -7, -54, -21,
   -38, 127, -67, 75, -78, 64, 121, -57,
   -127, -44, -2, 28, -96, -4, -128, -45,
   -124, -42, -8, -51, 90, -115, 109, -7,
   26, 94, -51, 69, -87, -2, -110, 22,
   29, 28, 71, -102, -51, 27, -85, -29,
   17, 12, -26, 56, 49, 77, -32, -12,
   -19, 29, 39, 79, -37, 7, 18, 32,
   -36, 46, 78, 4, -4, 24, 24, -50,
   35, -44, 23, -71, -15, 93, -36, -27,
   -22, -100, 13, -75, 41, 15, 7, -30,
   122, 115, -48, -62, 11, 99, 116, -46,
   89, 37, 21, -10, -1, 68, -115, -3,
   1, 59, 114, 35, 127, 71, -40, 27,
   -10, -24, -26, -28, -30, -123, 108, 18,
   117, 1, -27, 0, 93, 3, -127, 5,
   78, 33, 117, -103, 87, 22, -72, 2,
   -49, -68, 0, -32, -4, -90, 17, 20,
   -113, -46, -88, 91, -7, 5, -9, 35,
   102, 38, -122, 9, -45, 127, 47, 11,
   -48, 14, -62, -52, -43, -28, -79, -58,
   -33, -9, -37, 40, 14, 9, 75, 4,
   17, -33, 37, 86, 127, 127, 102, 127,
   -56, -49, -9, -43, -26, -21, 126, 94,
   127, 119, 107, 19, 108, 36, 121, 124,
   -1, -22, -21, -77, 98, 2, -21, -1,
   25, 96, -7, 5, 39, 7, 11, -10,
   -30, 45, 48, 17, 69, -28, 31, -6,
   -70, 116, -56, 127, -52, 68, 57, -62,
   -75, -37, -41, -25, -39, -77, -84, 94,
   -30, -52, 14, 121, 7, -105, 114, 29
};

static const rnn_weight vad_gru_bias[72] = {
   -76, -101, 94, -127, -128, -80, -124, -119,
   -112, 127, 127, 127, 126, -20, -119, -118,
   -110, -123, -121, -124, -123, -121, -121, -96,
   -15, 1, 78, -28, -55, 16, 22, 23,
   74, 8, 4, -12, 26, 32, 15, 43,
   40, 44, 32, 52, 61, 0, 11, 58,
   11, -13, 16, -39, 41, -100, -32, 9,
   25, -77, 19, -90, 7, 27, 44, -30,
   81, 21, -23, -33, -25, 13, -64, -41
};

static const GRULayer vad_gru = {
   vad_gru_bias,
   vad_gru_weights,
   vad_gru_recurrent_weights,
   24, 24, ACTIVATION_TANH
};

static const rnn_weight vad_output_weights[24] = {
   127, -128, 98, -128, 127, -128, -128, 127,
   127, 83, 127, 46, 96, 127, 127, -128,
   127, 127, -128, -128, -128, 127, -128, -128
};

static const rnn_weight vad_output_bias[1] = {
   76
};

static const DenseLayer vad_output = {
   vad_output_bias,
   vad_output_weights,
   24, 1, ACTIVATION_SIGMOID
};

const struct RNNModel model_sh = {
    24,
    &input_dense,
    24,
    &vad_gru,
    1,
    &vad_output,
};
